4.967141530112326731e-01 -1.382643011711846559e-01 6.476885381006924902e-01 1.523029856408025351e+00 -2.341533747233359719e-01 -2.341369569491805469e-01 1.579212815507391454e+00 7.674347291529087789e-01 -4.694743859349521098e-01 5.425600435859646575e-01
-4.634176928124622563e-01 -4.657297535702568658e-01 2.419622715660341150e-01 -1.913280244657797891e+00 -1.724917832513032767e+00 -5.622875292409726944e-01 -1.012831120334423796e+00 3.142473325952738761e-01 -9.080240755212108938e-01 -1.412303701335291484e+00
1.465648768921554046e+00 -2.257763004865356582e-01 6.752820468792383735e-02 -1.424748186213456780e+00 -5.443827245251826596e-01 1.109225897098660846e-01 -1.150993577422302794e+00 3.756980183456719580e-01 -6.006386899188049799e-01 -2.916937497932767798e-01
-6.017066122293969199e-01 1.852278184508937775e+00 -1.349722473793392094e-02 -1.057710928955900354e+00 8.225449121031890298e-01 -1.220843649971022238e+00 2.088635950047554035e-01 -1.959670123879775572e+00 -1.328186048898430505e+00 1.968612358691235187e-01
7.384665799954104326e-01 1.713682811899704950e-01 -1.156482823882405281e-01 -3.011036955892887890e-01 -1.478521990367427374e+00 -7.198442083947086401e-01 -4.606387709597875024e-01 1.057122226218915717e+00 3.436182895684614103e-01 -1.763040155362733952e+00
3.240839693947950018e-01 -3.850822804163165358e-01 -6.769220003059587265e-01 6.116762888408678878e-01 1.030999522495950949e+00 9.312801191161985681e-01 -8.392175232226385395e-01 -3.092123758512145826e-01 3.312634314035639571e-01 9.755451271223591903e-01
-4.791742378452899520e-01 -1.856589766638171157e-01 -1.106334974006028204e+00 -1.196206624080670800e+00 8.125258223941980162e-01 1.356240028570822931e+00 -7.201012158033384680e-02 1.003532897892024156e+00 3.616360250476341465e-01 -6.451197546051242737e-01
3.613956055084139307e-01 1.538036566465969202e+00 -3.582603910995153795e-02 1.564643655814006218e+00 -2.619745104089744370e+00 8.219025043752238302e-01 8.704706823817121020e-02 -2.990073504658674053e-01 9.176077653550229751e-02 -1.987568914600892800e+00
-2.196718878375119310e-01 3.571125715117464128e-01 1.477894044741516089e+00 -5.182702182736473873e-01 -8.084936028931876129e-01 -5.017570435845365440e-01 9.154021177020741362e-01 3.287511096596844595e-01 -5.297602037670388064e-01 5.132674331133560974e-01
9.707754934804038727e-02 9.686449905328892163e-01 -7.020530938773523744e-01 -3.276621465977682113e-01 -3.921081531321576330e-01 -1.463514948132118576e+00 2.961202770645760540e-01 2.610552721798893305e-01 5.113456642460889774e-03 -2.345871333751469168e-01
-1.415370742050414243e+00 -4.206453227653590421e-01 -3.427145165267694860e-01 -8.022772692216189050e-01 -1.612857116660091350e-01 4.040508568145383950e-01 1.886185901210530202e+00 1.745778128318389577e-01 2.575503907227643663e-01 -7.444591576616721440e-02
-1.918771215299041488e+00 -2.651387544921687822e-02 6.023020994102643716e-02 2.463242112485286128e+00 -1.923609647811225232e-01 3.015473423336124670e-01 -3.471176970524331162e-02 -1.168678037619532040e+00 1.142822814515020546e+00 7.519330326867741388e-01
7.910319470430469124e-01 -9.093874547947389253e-01 1.402794310936099187e+00 -1.401851062792280889e+00 5.868570938002702908e-01 2.190455625809978546e+00 -9.905363251306883443e-01 -5.662977296027719154e-01 9.965136508764121936e-02 -5.034756541161992116e-01
-1.550663431066132691e+00 6.856297480602732697e-02 -1.062303713726104881e+00 4.735924306351815827e-01 -9.194242342338031504e-01 1.549934405017539429e+00 -7.832532923362370836e-01 -3.220615162056755798e-01 8.135172173696697540e-01 -1.230864316433955219e+00
2.274599346041294157e-01 1.307142754282428099e+00 -1.607483234561227547e+00 1.846338585323042125e-01 2.598827942484235320e-01 7.818228717773103575e-01 -1.236950710878081949e+00 -1.320456613084276309e+00 5.219415656168976403e-01 2.969846732331860584e-01
2.504928503458765388e-01 3.464482094969756898e-01 -6.800247215784908095e-01 2.322536971610035528e-01 2.930724732986812464e-01 -7.143514180263678126e-01 1.865774511144756564e+00 4.738329209117875251e-01 -1.191303497202648609e+00 6.565536086338297217e-01
-9.746816702273214394e-01 7.870846037424520381e-01 1.158595579007404064e+00 -8.206823183517104603e-01 9.633761292443218105e-01 4.127809269364983158e-01 8.220601599944900029e-01 1.896792982653947357e+00 -2.453881160028704989e-01 -7.537361643574895798e-01
-8.895144296255232952e-01 -8.158102849654382815e-01 -7.710170941410419976e-02 3.411519748166438881e-01 2.766907993300190549e-01 8.271832490360238044e-01 1.300189187790701945e-02 1.453534077157316862e+00 -2.646568332379560795e-01 2.720169166589618825e+00
6.256673477650062098e-01 -8.571575564162825511e-01 -1.070892498061112308e+00 4.824724152431852930e-01 -2.234627853258508989e-01 7.140004940920919863e-01 4.732376245735448461e-01 -7.282891265687277405e-02 -8.467937180684049769e-01 -1.514847224685864635e+00
-4.465149520670210759e-01 8.563987943234723232e-01 2.140937441302039612e-01 -1.245738778711988015e+00 1.731809258511819993e-01 3.853173797288367841e-01 -8.838574362011329955e-01 1.537251059455279067e-01 5.820871844599989631e-02 -1.142970297830623094e+00
3.577873603482832898e-01 5.607845263682343928e-01 1.083051243175277012e+00 1.053802052034902959e+00 -1.377669367957091051e+00 -9.378250399151227823e-01 5.150352672086597750e-01 5.137859509122087998e-01 5.150476863060479138e-01 3.852731490654721203e+00
5.708905106931669859e-01 1.135565640180598912e+00 9.540017634932023149e-01 6.513912513057980025e-01 -3.152692446403456139e-01 7.589692204932674269e-01 -7.728252145375718030e-01 -2.368186067400088746e-01 -4.853635478291034588e-01 8.187413938632255583e-02
2.314658566673508666e+00 -1.867265192591748058e+00 6.862601903745134679e-01 -1.612715871189651651e+00 -4.719318657894334690e-01 1.088950596967366069e+00 6.428001909546277037e-02 -1.077744777929306119e+00 -7.153037092599682234e-01 6.795977489346758382e-01
-7.303666317171366718e-01 2.164585895819748640e-01 4.557183990381378363e-02 -6.516003476058170873e-01 2.143944089325325653e+00 6.339190223180112271e-01 -2.025142586657607158e+00 1.864543147694276426e-01 -6.617864647683879831e-01 8.524333347962239626e-01
-7.925207384327006555e-01 -1.147364414668990140e-01 5.049872789804571438e-01 8.657551941701214782e-01 -1.200296407055776227e+00 -3.345012358409483744e-01 -4.749453111609561740e-01 -6.533292325737118933e-01 1.765454240281096876e+00 4.049817109609555321e-01
-1.260883954335045187e+00 9.178619470547760839e-01 2.122156197012633250e+00 1.032465260551146846e+00 -1.519369965954013413e+00 -4.842340728662513638e-01 1.266911149186622731e+00 -7.076694656187807464e-01 4.438194281462284341e-01 7.746340534293367774e-01
-9.269304715780829484e-01 -5.952535606180008043e-02 -3.241267340069072578e+00 -1.024387641334289833e+00 -2.525681513931603006e-01 -1.247783181964849497e+00 1.632411303931635249e+00 -1.430141377960632676e+00 -4.400444866969837610e-01 1.307405772860913418e-01
1.441273289066115515e+00 -1.435862151179439383e+00 1.163163752154959596e+00 1.023306101958704889e-02 -9.815086510479509307e-01 4.621034742632707526e-01 1.990596955734700302e-01 -6.002168771587946816e-01 6.980208499001891442e-02 -3.853135968617601992e-01
1.135173452512480419e-01 6.621306745210466804e-01 1.586016816145352060e+00 -1.237815498826849048e+00 2.133033374656266634e+00 -1.952087799522501887e+00 -1.517850950355833228e-01 5.883172064845765270e-01 2.809918677350326521e-01 -6.226995198205937943e-01
-2.081222503572752180e-01 -4.930009346588328234e-01 -5.893647569442115319e-01 8.496020970210246270e-01 3.570154859650473411e-01 -6.929095952606542097e-01 8.995998754332507064e-01 3.072995208766093334e-01 8.128621188389600905e-01 6.296288419236122369e-01
-8.289950109220722840e-01 -5.601810401969695707e-01 7.472936051232618171e-01 6.103702654334648425e-01 -2.090159396414813242e-02 1.173273833087819934e-01 1.277664895788424904e+00 -5.915713888358299366e-01 5.470973811700379219e-01 -2.021926524338940601e-01
-2.176812032272202879e-01 1.098776851987190106e+00 8.254163489880298465e-01 8.135096360006385252e-01 1.305478807154329068e+00 2.100384163275904881e-02 6.819529712949639055e-01 -3.102667565934560390e-01 3.241663524884421110e-01 -1.301430543676845852e-01
9.699596499271818939e-02 5.951570254369136226e-01 -8.182206832334725233e-01 2.092387275685460235e+00 -1.006017381499701990e+00 -1.214188612787732158e+00 1.158110873500067806e+00 7.916626939629358706e-01 6.241198170521551347e-01 6.283455092642799000e-01
-1.224677284691462302e-02 -8.972543714858315367e-01 7.580455819372633464e-02 -6.771617115121116859e-01 9.751197334177511555e-01 -1.470573815021386510e-01 -8.254971967925115450e-01 -3.213858416529934425e-01 4.129314542756243323e-01 -5.637245528039747100e-01
-8.222203955664314501e-01 2.436872114919123034e-01 2.449665711087227749e-01 -5.069431753711297617e-01 -4.710383056183227724e-01 2.320499373576362934e-01 -1.448084341497324123e+00 -1.407463774376555232e+00 -7.184442212524360105e-01 -2.134471517118472494e-01
3.109075655980045871e-01 1.475356216949551991e+00 8.576596232020193833e-01 -1.599385299634271118e-01 -1.901620790268883018e-02 -1.002529364637808840e+00 -1.851313599238993066e-02 -2.886586389201383218e-01 3.227185603380894885e-01 -8.272309435523229615e-01
5.193465142411722857e-01 1.532738913002577696e+00 -1.087601484568575944e-01 4.017117220989414594e-01 6.901439917111125144e-01 -4.012204718858362607e-01 2.240924818104167715e-01 1.259240078179485987e-02 9.767609854883171905e-02 -7.730097838554664813e-01
2.451017425894271365e-02 4.979982912454497535e-01 1.451143607795041701e+00 9.592708260852068625e-01 2.153182457511556347e+00 -7.673475628880495059e-01 8.723206367206781664e-01 1.833420057383517432e-01 2.189802933217672276e+00 -8.082982853551514690e-01
-8.397218421807760569e-01 -5.993926454440221541e-01 -2.123895724309806887e+00 -5.257550216807610477e-01 -7.591326615536979627e-01 1.503937864762076304e-01 3.417559757771594375e-01 1.876170839215886232e+00 9.504238381860502516e-01 -5.769036556624030920e-01
-8.984146713483579516e-01 4.919191715065057147e-01 -1.320233207020642174e+00 1.831458765854353743e+00 1.179440120721287011e+00 -4.691756521047047990e-01 -1.713134529090877489e+00 1.353872374165412840e+00 -1.145398452526178862e-01 1.237816311973461758e+00
-1.594427658794367098e+00 -5.993750229537728735e-01 5.243699718183165819e-03 4.698059376474205545e-02 -4.500654714792436395e-01 6.228499323474987470e-01 -1.067620429382594383e+00 -1.423794850212934948e-01 1.202956317118988594e-01 5.144388340587490172e-01
7.116148780888897907e-01 -1.124642091837869229e+00 -1.534114170735622285e+00 1.277676821898509063e+00 3.323140119795916503e-01 -7.484865365565536166e-01 1.551151975522522930e+00 1.156746342928586663e-01 1.179297184063826442e+00 6.751848141010895199e-02
2.059849038166186919e+00 1.755340099061638126e+00 -2.493638267642489803e-01 9.715709509541570199e-01 6.430648894976397356e-01 1.368631127652532919e+00 -9.587278869811792781e-01 6.807028312129591585e-01 1.058424486849515178e+00 -1.758912255647626433e+00
-1.187088836501565936e+00 -2.039235215778594235e+00 -2.707605670136922216e-01 7.175422557951922631e-01 1.492049649195340555e+00 7.409286132054566931e-02 1.651706437056635002e+00 -1.401147079883285684e+00 -1.703382439355396905e+00 -5.630879617525821890e-02
3.828079678676795106e-01 -3.269501168621929271e-02 -2.067471391936393399e+00 -8.912003951283498093e-02 -1.305579628319778474e+00 6.696723409787981307e-01 3.706864085441919365e-01 -9.472520547969658367e-01 -5.138669173366944287e-01 -1.059292541832002277e+00
-6.345917454338302621e-02 9.551422797887613170e-01 -9.857336367397204757e-01 5.040438710186633253e-01 -5.342156777166356951e-01 -7.928759108167057201e-01 -1.040504968131719804e-01 -1.042113992988011661e+00 -5.536515392999694640e-01 -1.197877918013691145e+00
1.963429655562307863e+00 3.526346305545762644e-02 -6.997294124093298429e-01 2.139727368268671548e-01 -1.230653239705524066e-01 -2.209779503926906918e-01 6.194917040989172952e-01 7.443206803143597172e-01 -5.305072078016038750e-01 -5.758182883720365242e-01
-2.751837850387267581e-01 -2.301921173801554144e+00 -1.515191460295945980e+00 1.366873535987303656e+00 1.643872932594333092e+00 -2.490368910165590421e-01 5.770999046457372383e-01 3.099055946491971469e-01 3.078880190553407115e+00 1.119574906568260531e+00
-1.279175914807665349e-01 -9.555404406004257556e-01 -1.606446320257572502e+00 2.034636358672231027e-01 -7.563507452843033496e-01 -1.422253709597674165e+00 -6.465728842425265688e-01 -1.081548003614394959e+00 1.687141635072564760e+00 8.816397569494505149e-01
-7.972641316617372007e-03 1.479944138890025851e+00 7.736830764761830348e-02 -8.612842013282636655e-01 1.523124077269657262e+00 5.389100436846586684e-01 -1.037246154326456393e+00 -1.903386780836081871e-01 -8.756182533847571836e-01 -1.382799730964336060e+00
9.261775475316413875e-01 1.909416640470130488e+00 -1.398567573819141208e+00 5.629692366905708623e-01 -6.506425691218269414e-01 -4.871253837646960516e-01 -5.923939242388691628e-01 -8.639907696798160286e-01 4.852162794482699215e-02 -8.309501164110377758e-01
2.704568257798388164e-01 -5.023810944913695287e-02 -2.389480468664097468e-01 -9.075636620415978850e-01 -5.767713305683327407e-01 7.553912258257560186e-01 5.009171876243807553e-01 -9.775552447985510485e-01 9.933230542922587281e-02 7.513871233717890341e-01
-1.669405281121371765e+00 5.433601923799350475e-01 -6.626237589458466859e-01 5.705986685931593305e-01 -7.632591565425168589e-01 -1.804882100664519040e+00 -1.627542437883162663e+00 4.808494666138199425e-02 2.597225017214818688e-01 -9.043166251044085779e-01
6.385924587773739169e-01 -1.661520062268959874e+00 -6.607979864731657049e-02 -1.211016199762456669e+00 -6.518361078021591704e-01 4.739867131641401637e-02 -8.604133652839524027e-01 -3.845555442298253523e-01 1.006292809214440531e+00 -5.768918695231487481e-01
8.356921120651418233e-01 -1.129706854657618109e+00 5.298041779152827813e-01 1.441568620657900368e+00 -2.471644500127289312e+00 -7.968952554704767932e-01 5.770721271805400177e-01 -2.030453860429926871e-01 3.711458733713088320e-01 -6.039851867158205767e-01
8.658978747289991507e-02 -1.556772353920794771e-01 1.167782061659807358e+00 2.544208433012131176e-01 3.376026620752021756e-01 -4.118769661224673806e-01 -4.876062240724935437e-01 -4.325581878196209096e-01 3.944521423782968439e-01 -4.209844808202629629e-01
2.897748568964129134e-01 2.075400798645438805e+00 8.711247034316923488e-01 -3.260235321678411347e-01 1.201213922163944847e+00 -4.080753730215513908e-01 -2.038124535177853858e+00 -1.008086310917404083e+00 -1.870791921025855675e+00 -3.515134840413086659e-01
1.841837918955169934e-02 1.676437312275282698e+00 3.269273737641626432e-01 -2.191005288088642422e-01 8.294055811834891712e-01 -2.211135309007885130e+00 2.356145581085659357e-01 7.708651938869668374e-01 -1.478586245779841546e+00 1.143754043206929083e+00
3.384964074944141199e-01 -4.152879139008012754e-01 6.327818661062848404e-01 2.270692857804395892e+00 1.818662550584951576e-01 2.482205863003360824e-01 -4.593608995402441164e-01 -8.498443694647918045e-01 8.303358165442455974e-01 -8.560838259088672242e-01
7.156623721939246729e-02 -4.776574467651166778e-01 4.789798257463918629e-01 3.336621052869482851e-01 1.037539944257899194e+00 -5.100163988547470328e-01 -2.698749352933712542e-01 -9.787637157823073641e-01 -4.442932600761115847e-01 3.773004930448521921e-01
7.569886166453518861e-01 -9.221653241776254228e-01 8.696059201056601795e-01 1.355637858804950913e+00 4.134349032237008559e-01 1.876795812558065935e+00 -7.737891991035730221e-01 -1.244654703311417032e+00 -1.778720248904278600e+00 1.496044311489183043e+00
6.543656563540577453e-01 -5.558467091045506819e-02 2.799686263198202796e-01 -1.125489047298376510e+00 2.445751979616826333e+00 1.292211819752275004e-01 1.093947946048928893e-01 7.257666238986919538e-01 4.810092317367132275e-01 2.238840242791313717e-01
-7.906064388122470143e-01 4.714683031659605561e-01 1.876303201521023922e+00 1.345420046147491000e+00 1.593186625924895905e+00 -5.112160856498269013e-01 -9.817479978849569244e-01 -1.258393268016296529e-01 5.572491221184014409e-02 1.093937097137358094e+00
-1.693099792595306630e+00 1.529519283370765814e+00 -1.855348846165886800e-01 -4.268810699853461399e-01 -1.012106877083925660e+00 -1.654858984450541248e+00 8.704227800840286244e-01 7.177785378625216317e-02 -1.291041263372493475e+00 -1.300975499864401419e+00
-3.358545000463078467e-01 1.669006230680021963e+00 -2.629567075647049612e-01 -1.503142953122999392e+00 -2.457999045880002453e-01 -2.730930158166601784e-01 -2.687239772657538328e+00 -5.500501505517936540e-02 -2.315279842425136125e-01 6.935405234303253508e-01
1.848954941346273584e+00 1.126564908417577726e+00 -2.639346076867034596e-01 -1.107284339453943556e+00 2.537705765855799545e+00 5.539352039987387177e-02 7.529989058245192823e-02 -2.463928330219243221e-02 1.942370598281063232e-01 -1.944820592202888276e-01
-5.757239205555600980e-01 -5.468625147563882516e-01 1.257340541171933848e-02 -5.560705267883003788e-01 -7.700348817543603008e-01 1.023154790176239309e-01 -6.635748416564117569e-02 1.494191940949308073e+00 -2.659034812787788749e+00 9.713614767061538036e-01
1.119841478764843634e+00 -2.074082265312484186e+00 -2.277859813324893956e-01 -3.979958268428382961e-01 -1.465818987155499187e+00 -8.019783447519561737e-01 -9.001645802343904990e-01 1.730871521262826507e+00 9.035901622170797731e-01 1.128415389103416544e+00
5.592844874300165747e-01 -1.146588312109030561e+00 -5.023729722482972448e-01 4.674991726778479628e-01 -1.322607729822780964e+00 5.875779249007121452e-01 -8.093893080385609895e-02 -4.153775988736413405e-01 5.700428326199468154e-01 3.087260433790918746e-01
-5.519732647004020887e-01 1.101502211653212715e+00 -1.038679511092974961e+00 6.002614955161206245e-01 4.871271740039169185e-01 -4.768014027391956899e-01 4.426676177598509176e-01 -1.330993919009760607e+00 8.784670089029258389e-01 -3.133955425608628831e-01
-7.003716725296851298e-01 9.149239809616600549e-01 -7.711967135720234623e-01 -1.461248549170865996e+00 -1.666752661385326517e+00 5.272811300195795470e-01 -1.033431310825116745e+00 1.565562990904867391e+00 -2.088566963650879238e+00 1.560984079657576906e+00
-5.194496129777582960e-02 -1.427351223400765978e-01 -5.749221857267062807e-01 3.602162018770078689e-01 -1.236992788510155594e-01 1.038478745817378757e+00 3.736506382859991482e-01 -1.021141831544176426e-01 -3.640872491993837334e-01 -1.427851512128487654e-01
1.180023021231917935e-01 -1.712796686774669563e+00 -1.426712817130459721e+00 7.364476088601821235e-01 -6.532545667704940662e-03 -2.578604095922478745e-01 3.227010999431068061e-01 1.444721870183661716e-01 -5.456118112769067219e-01 -8.062329170349474827e-01
4.115404075107262361e-02 -9.849918320097523772e-01 2.824567486932738625e-01 -1.703197371064937959e+00 6.826215541302904644e-01 4.163771022566642999e-01 4.626485496712758883e-01 8.446460210405671853e-01 1.652812958050459358e+00 1.004363905837204918e+00
-1.921849937630098371e+00 -1.286321134009235978e+00 -8.233001864601698916e-01 2.418903950744837744e-02 1.951967245401432793e-01 -8.171753386399818186e-01 1.429611320062977586e-01 -8.047221608994081787e-01 -6.203610436421046481e-01 -1.484168738257594322e+00
-9.865502717972030045e-01 -1.354272649120897842e+00 -1.098541890667259269e+00 1.045006663100363831e+00 -1.114555184308773761e+00 2.514908507801019155e+00 5.878044468945455847e-01 1.722168521022262866e-01 -8.622481195109463759e-01 6.271843652756863285e-01
-6.506007947523370083e-01 1.202985815457831703e-01 2.398946037694780209e+00 -1.016515032911005506e-01 1.109355423233462590e+00 -7.414298818609128539e-01 -1.066190852617208279e-01 1.759354054236337284e+00 -6.281093264754135097e-01 1.791337216708085878e+00
5.874437284064563114e-01 -5.703303260679180031e-01 4.311734812218349644e-01 9.714675618388151079e-01 5.883439611918844792e-01 -1.570260878819221606e+00 -9.525950221356982439e-01 -2.527300305551623549e-01 -7.498536631071223146e-02 6.032852202568357303e-01
6.361577042124354209e-02 -1.342595265460887477e+00 2.519530398476138577e-01 6.105702952980358589e-01 5.440720752456379428e-01 1.080785218176132823e+00 7.026502292167436936e-01 4.557490730427536385e-01 -7.057482449792974732e-02 -1.669711294855380723e+00
4.096198415919827251e-01 2.076875646346511561e-01 1.907674594856887951e-01 -1.276748685869687261e+00 -1.138545028146213722e+00 1.053152702474519753e+00 4.042945996883908627e-02 6.814351137437427708e-01 2.827957260119903435e-02 2.879686364459784279e-02
9.382489182646964743e-01 -5.160447835194867938e-01 1.015119749350893996e-01 -4.622753204188430609e-01 -4.593597639953105882e-01 -3.091721267975256482e-01 2.221337716314988608e-01 -4.787600151782152036e-01 1.255756058468202818e+00 -8.946085713279522400e-01
-1.868716441613590407e-01 -4.397310582741749130e-01 1.446977884353732868e+00 1.965547765115746304e-01 1.031844539468634858e+00 -1.485560373036971971e+00 2.670502658692588405e-01 8.896307956234370540e-01 8.228398927542418528e-02 1.065480375065351204e+00
-5.172884501003721658e-01 1.409347440185579892e+00 2.298898123619250278e+00 -3.628385604396590636e-01 -4.455025214007717893e-01 1.453384477117700913e+00 1.579572145730712363e+00 -5.228600271532682919e-01 -4.201868170958572568e-01 -2.817846088605072130e-01
-1.344450511034277040e+00 -9.186519464841982341e-01 -1.004140766752067870e+00 -7.677975651041284433e-01 -3.468488738678118105e-02 2.342147325365207533e-01 1.550500492814076869e+00 -9.983540407387909710e-01 9.843223984765837598e-01 -2.139888442255089562e-01
-4.946370965243294948e-02 6.748194921666037516e-01 -1.122722021562298611e+00 3.824097461840506029e-01 1.664522082130560909e-01 4.924512640081490922e-01 2.891686439078181015e-01 2.455300139910894242e+00 -6.377399842513159500e-01 -5.309969550018176498e-01
-6.231405264247643627e-01 -5.554771191602546621e-01 -6.373871273065176979e-01 1.189016531107551788e+00 1.420504247989854862e+00 -5.707462937494762745e-01 -8.323555731042286965e-01 4.714155563864040888e-01 -5.522230442809712425e-01 6.329318177555107727e-01
2.029230208512997069e-01 -1.515744114997231939e+00 1.547505201330061642e+00 1.795877673095521709e+00 -6.127886904843862226e-01 -3.877015599359841524e-01 2.858653907249049664e-01 3.344567899870249938e-01 6.585442726728304441e-01 2.010204538766349636e+00
-1.769472274940493972e-01 -7.982972445384537430e-01 -1.379319228014527221e+00 -7.309300399419190741e-01 -3.312697287379709477e-02 1.794557863517787677e+00 -5.176112990361714239e-01 2.237879516388985024e-01 -1.642289607275207453e-02 1.188393273448083987e+00
2.526932425873621657e+00 -5.308687729203206418e-01 -4.894394425182221342e-01 1.044160877069072013e+00 6.818914896263114089e-01 1.846707325736033578e+00 5.839281853259639110e-01 -3.592920907870595371e-01 5.906548306923092850e-01 1.108703580582907744e+00
8.204452259466360475e-01 5.059573760631148609e-01 1.067742089983813258e+00 1.169295512226719014e+00 1.382158990993642256e+00 6.485406808241170884e-01 -1.671180803169453888e-01 1.452280918242132846e-01 1.206508966124034465e+00 -8.169376909126393471e-01
3.679584143334849733e-01 -4.011658466614827501e-01 1.711629218298997557e-02 1.278450508201742775e+00 1.910990654054516846e-01 4.537017675761560037e-02 -1.334458785741169606e+00 7.372477639528278726e-01 6.454830193640003211e-01 2.162293776738791973e+00
-3.090127661678900295e-01 2.095362630586527775e-01 2.412020172130537321e-01 1.569554528799384396e+00 -1.022517695367140961e-01 2.772833546564109075e-01 6.559560495670543334e-01 1.746047396886175884e-01 -4.475137480702731652e-01 1.391499304313076890e-01
1.072005308260060463e+00 -1.039452963200721225e+00 1.712023679954366162e-01 -7.186519418413009896e-01 1.147395519778873663e+00 -1.536496047435719214e+00 -5.224536217821037498e-01 3.615712699656393192e-01 1.536077595278823926e+00 -2.272729237699815386e-01
-5.470596649566125125e-01 1.808913036959580278e+00 -1.340466290532287053e+00 -2.245463047215678021e+00 3.256878053909670334e-01 -5.416649170600834617e-01 -1.313054630184578908e+00 6.587496738426610321e-01 1.449182008402754296e-01 -8.091343469483037731e-01
-1.317734024201058896e+00 6.773890156666224627e-01 7.698413730327695603e-01 -2.126544476356508340e-01 1.619555599731951512e+00 -1.236297710217111101e+00 -1.361765428546287904e+00 -7.577327915817286819e-01 -2.353513338968314106e-01 -4.912619057803625788e-02
-4.910589484924454684e-01 8.321135116770393692e-02 -1.177988915521268387e+00 1.264408285960816780e+00 -4.240940098138570868e-01 8.944929503264782422e-01 4.393205579149897511e-01 3.742896835414540879e-01 2.844568595518912613e-01 1.304309009808409248e-01
2.686263831098594235e-01 1.030604600360903511e+00 2.646641668748236365e-01 5.006670189200891352e-01 -4.084328331325081107e-01 1.204379326564842367e+00 -6.306209829412546819e-01 1.653588127094711480e+00 -3.659951600393498428e-01 -1.747471273276499870e+00
-7.222287898371190229e-01 -9.244667728361071202e-01 1.181730241834588080e+00 -8.259461259658741339e-01 -7.332710468994417807e-01 -2.098761000852464420e+00 -4.722470016084039934e-01 -2.703775566916053030e+00 -1.781989575415637850e+00 4.824324152760675055e-01
-2.563798134942991691e-01 1.940692344411636405e-01 -7.366364744196800540e-01 -2.378611625707348909e-01 -3.502672978623323496e-01 -1.280718872388605156e+00 1.299801537131869855e+00 4.676245734485277028e-01 -5.473132774292557290e-01 -2.089764673000708561e-01
-9.242562668122406011e-01 -2.257810681347881321e+00 -2.066105565846386161e-01 -8.356956457081581302e-01 -1.498975597873010157e+00 -4.816388067055608069e-01 1.658365517487710550e+00 1.931433310470856424e-01 -1.008643599064318330e+00 4.017879956858836921e-01
6.884208059636459653e-01 6.306498924372371251e-01 -9.073680244973121589e-02 -8.750513847898374609e-01 -6.902345149222573195e-02 -1.344174270459168874e-01 6.971743640500199790e-01 2.471240002911233302e-01 6.301100949680263907e-01 -6.748276558267595204e-01
8.462160445931280472e-01 -1.814696185800157222e-02 1.443666619721304611e+00 -1.051710749743732354e+00 9.394451179568554799e-01 -4.797746680169064359e-01 -6.479174056763766787e-01 -7.933861916660356339e-01 -6.693818966846397656e-01 2.734983059070814071e-01
1.460026489783372017e-01 -6.767681849133265759e-01 -6.891172966718281945e-01 1.884814757878369162e+00 1.038768372019151842e+00 3.433075100804800633e-02 2.933029911976655635e-01 -7.444584117393750200e-02 1.385371533077002504e-01 -1.229104666952426816e+00
-5.870446662546662253e-01 -1.706972954938571263e+00 -5.646956237567898364e-03 4.737483053832791668e-01 -8.083613068814431424e-01 1.387925565009997975e+00 -4.962073483633863136e-01 -1.566636462030944976e+00 -5.540583857838447118e-02 7.828968646658285291e-01
1.389238896927349698e+00 -4.977074133938481082e-01 7.310673168381277565e-01 -1.389014698872778064e-01 -2.851228906349382308e-01 8.505755856362454681e-01 8.559778312168788705e-01 -1.630706313689863407e+00 1.425717545680593279e+00 1.213179061731226360e+00
-8.632587220927431249e-01 3.609347874686310575e-01 1.676701250556298095e-01 2.099173909162287133e-01 -6.214359210891167162e-01 -7.123927181775228101e-01 1.007061846047490120e-02 1.142233405185304029e+00 5.592746043465546268e-01 -4.134574621480457957e-01
6.643211095645343844e-01 -2.856964777398381283e+00 9.227035191251334867e-01 -1.748428506124747095e+00 -4.438040634182158217e-01 -1.130978984127338993e+00 -1.120686379723547343e+00 1.157058720527430751e+00 -4.727123830929922388e-01 3.381094485914027392e-01
-8.066319825242407315e-02 4.768591854815817377e-01 -7.370709448106062267e-02 -1.284406227221845720e+00 8.778965763564672287e-01 -5.015458936234862275e-01 -1.396557716680231875e+00 -4.282989141788274279e-01 1.500707255142178065e+00 8.489489392586490046e-01
-3.498386090764436518e-01 -3.494392288890747489e-01 -4.091983974217817677e-01 2.076004173534278685e+00 3.255816469475693586e-01 4.161893994937657659e-01 1.111502948123047174e+00 2.386617521035205025e-01 -2.590616040732170444e-01 -1.963505234522727183e-01
-7.160125941406395023e-02 -3.722223650984159138e-02 7.276295436369798475e-01 5.194588580729943283e-02 7.326400772155792218e-01 -8.071658010858231980e-02 7.863519031609059184e-02 -1.998200684532107640e+00 9.163276747024814428e-01 3.464884758979926982e-01
9.980101098596522169e-01 -2.896255378193689278e+00 2.088374704780727509e+00 -1.395896281551737561e-01 1.108182816737516507e+00 -1.039905927125530871e+00 6.127739050625696793e-01 -1.053415563173656144e+00 -6.237689606958051192e-01 1.914031353866786134e+00
-1.906824007633465823e-01 2.174328731797228742e-01 8.700677306887542040e-01 4.956818879726046512e-01 1.504189051435764202e-01 3.649610024662254260e-01 2.403415585238275032e+00 -5.761879703358539079e-02 2.010990467149675054e-01 1.050654396007612013e+00
1.105525932957983848e+00 1.187030305560380139e+00 6.387302220291846133e-01 -1.143004912730483547e+00 1.633431532301095945e+00 -1.146345393018687986e+00 3.026354652390332300e-01 -7.542758500193579296e-01 -6.413834659299254282e-02 3.287624103034804124e-01
3.213572154502730704e-01 4.219207542352847451e-01 1.613711269058647035e+00 4.535343015139798317e-01 -2.441566352906486825e-01 9.640871682883572769e-01 1.189470488924640579e+00 -1.227607815136992464e+00 5.974000698498580508e-01 7.011727423108983226e-01
-2.977350862085159644e-01 1.375704323763128123e+00 -1.511233826422966331e-01 1.204374904123008821e-01 -1.730825713844988123e-01 1.557903704768851851e-02 -1.096275460466526575e+00 -1.440050882613314487e+00 1.603580554090859644e+00 -8.469613483306963619e-01
-9.913926660554749359e-01 -2.153532154274043986e+00 -6.372952130019765571e-01 -1.322916942202907675e+00 1.641127796888014023e+00 1.009763174926674001e+00 -6.881646010744002506e-01 2.247215642000599534e+00 9.817113876991534482e-01 -3.249628050537428647e-01
-2.502097741751775573e+00 2.290830029286945013e+00 -1.393854857761384958e+00 -1.632005355866672058e+00 1.021871054515254285e+00 2.432354215095104522e+00 1.382019921067504820e+00 5.597762990617954904e-01 5.947116602512757533e-01 8.489556684718907453e-01
7.439471701141665561e-01 2.744934812444972949e-01 1.498890713665080796e-02 5.205749456280882315e-02 -7.596379041727429060e-01 -3.247842771539085627e-01 -1.707140957672548032e+00 -1.144321019008703866e-01 -9.886352232671338225e-01 -1.159286200860551119e+00
1.741221044518792560e-01 1.381839092890329690e+00 7.468619753799345951e-01 -1.457908278551569570e+00 -9.932638883134898844e-01 8.802418592208254289e-01 -1.019003016602362477e+00 -2.526700755736124293e-01 5.472668866732652848e-01 -1.136983206728201745e+00
-7.435372468577214344e-02 -1.380163107222449836e+00 -6.204939178885454654e-01 2.334345391820470961e-01 -1.623289208738802003e+00 3.475616200747415618e-01 -1.765721926998575220e-01 5.065596760156861889e-01 2.369508364444141424e-01 1.067642826733694816e+00
-9.814591016675397461e-02 -5.439966597328027564e-01 4.307227675413993206e-01 2.803738966965867996e-01 -9.304941200228003528e-02 -1.880719412120790690e-01 -9.562793281137208501e-01 -7.594322527452637139e-01 -1.445546525371769642e+00 1.274971483246113646e+00
-1.239112020471158537e+00 -9.649367252665919104e-01 -3.772274223350683964e-01 2.017773676839810237e-01 -7.302079180293037375e-01 8.062135492363922129e-01 -1.353300244255783769e+00 6.298913288719693720e-03 -1.087963619289362027e+00 1.387594931924391428e+00
-1.234394700283078850e+00 -1.417411535805933875e-01 1.047709592644743504e+00 -4.907774081888216511e-01 -7.901718732467457595e-01 -8.305038598788898607e-01 -6.145985620392636628e-01 -5.364235219045434544e-01 3.344641558072516951e-01 1.127904140140333134e+00
-6.957984574110617215e-01 -1.890662790967904794e+00 1.597952829270218866e-01 1.670529754550329926e+00 -1.411634261799948442e+00 1.002950095729772784e+00 5.980582026401949358e-01 -1.171216634529601786e+00 -2.434740951267621301e-01 6.041310050764571171e-01
-1.279186533485695110e+00 -6.256557078684530371e-01 -7.386379139620176393e-02 -1.597073587066091704e+00 -1.538212957876706533e+00 -1.686145308258999886e+00 -1.413083320898145923e+00 -1.680771828756747910e+00 -5.709273019122772519e-01 -2.477504224132795141e+00
-1.057768880254272403e+00 1.209186105739822464e-01 -1.663178093309420014e+00 -6.672879475247055214e-02 1.730423824528361521e-01 -1.815274738306349001e+00 1.574659606129646394e-01 -7.965592300096407952e-01 -1.282308293827187029e+00 -7.983140991224438876e-01
-1.004072356396357391e+00 -8.907696230450622421e-01 -1.772984295241255941e-03 -1.506145350415168283e+00 -1.160475404809104161e+00 -2.239707107160568977e+00 -1.884164292575510435e+00 -2.345895011714260736e+00 -1.439890563397493661e+00 3.559247061119202304e-01
-3.344172947241924043e-01 -6.284800733303651521e-01 -1.598570207121161824e+00 -1.258210403770614549e+00 -1.928514372436233859e-01 -8.861353655670204388e-01 2.508843683516543410e-01 -1.047090245163362576e+00 -9.184399227583301961e-01 -1.384036719196023224e+00
-1.006960824349955264e+00 -1.655812266897690899e+00 1.440182976138792703e-01 -3.567337210418521920e-01 -2.338680250714597619e+00 -2.265866505734265068e+00 -3.534725512896710331e+00 -8.058769655058912740e-01 -2.455729632641785454e+00 -3.072109305143509328e+00
-8.034628850589028426e-01 1.152224066719408802e+00 -7.076403230090317908e-01 -6.542191188246827549e-01 -1.578511801794278746e+00 -6.228549736194951558e-01 -6.192873661707227334e-02 -1.272245722489794284e+00 -1.076832255500636437e+00 -5.237605117438201008e-01
-1.454847658868136939e+00 -1.077186542351383086e-01 -9.600259257919514511e-01 -1.914516978860812291e+00 -7.652640786593908340e-01 -1.200943261293874409e+00 -2.682580095272960041e-01 -9.801763426203601304e-01 1.753765153213014683e-02 -4.611015370698663407e-01
-6.326843041025886905e-01 2.424460340088460120e-01 2.241504142208928518e-01 -9.375878935283359084e-02 -7.804740290552746318e-01 -1.282896698191696716e+00 -8.880458348396799151e-01 -1.379335531762579503e+00 -1.263423043311037830e+00 -1.044626318695618172e+00
-5.863133154808416458e-01 3.024613563820456874e-01 -9.263711799529117386e-01 2.725767482848251988e-01 -3.104683576779287413e-01 -2.084744189665708625e+00 -7.705851773780877378e-01 -7.141487985074956857e-01 -1.267680486722200239e+00 -6.801363923869123418e-02
8.737145843655973465e-01 1.304524147290402780e+00 -7.301417471805791148e-01 1.421411904219343159e+00 -1.228244285151106202e-01 -4.818870893731440619e-01 -6.897023412976915901e-01 -5.458161314509686335e-01 -3.195689993322233802e-01 -2.094218351879546525e-01
-4.957514316732038462e-01 3.187603944657022015e-02 2.103691867775992486e-01 1.097197119181389624e+00 6.665843453559681109e-01 -1.578446960281862932e+00 -2.561837141924728556e+00 7.894447364875634143e-01 -1.404334717540324906e+00 -3.617966698851146079e-01
-1.499253703326693055e+00 -1.772641877367204355e+00 4.426403319128544567e-01 5.534961907868413133e-01 -8.246974200760198714e-01 -2.587910329337885784e+00 -4.679759051495278599e-01 2.820330363554897635e-01 -1.521109628812544967e+00 1.544387089188130613e-01
-8.392680063667802559e-02 5.776476070229032977e-01 7.353542032364789906e-03 -1.019102651018056305e+00 1.141391146321125039e+00 -1.520680452864832111e-01 5.327789590336604042e-02 -9.605429742223967615e-01 -4.505061797747357821e-01 -8.849933907240127295e-01
-1.804237926434612560e-01 1.709640155588814547e+00 -1.373974695178259431e+00 -1.613561399851739075e+00 1.471170285936312050e+00 -2.056278503340832342e-01 -6.690727389755863896e-01 1.038508593762143661e+00 -6.056155402527723108e-01 1.826009713469151086e+00
6.779258713392690705e-01 -4.879114081457026630e-01 2.157308213265503483e+00 -6.057149230033384013e-01 7.420953720093069750e-01 2.992925804064919260e-01 1.301741289398798074e+00 1.561511196726852679e+00 3.200414906576662388e-02 -7.534178703461834603e-01
4.599721429391164240e-01 -6.777153697521061115e-01 2.013387247526623014e+00 1.365353310827374378e-01 -3.653215513121086944e-01 1.846803058649084117e-01 -1.347126289529696486e+00 -9.716140385106515343e-01 1.200413907944425373e+00 -6.568942789713957398e-01
-1.046910982681939606e+00 5.366527525272861698e-01 1.185704154662996945e+00 7.189533106650667360e-01 9.960476858058163740e-01 -7.567950885694607610e-01 -1.421810666741843754e+00 1.501333651955486737e+00 -3.226798388421357466e-01 -2.508330164550473529e-01
1.328194141849057930e+00 5.562300094006599194e-01 4.558877720816076340e-01 2.165002344901084008e+00 -6.435182303801429970e-01 9.278401280812371699e-01 5.701312489708450226e-02 2.685922788632569280e-01 1.528468426412531667e+00 5.078357562896237409e-01
5.382113189576314127e-01 1.072349142415556456e+00 -3.594103924356493729e-01 -8.392121879212415259e-01 -1.044809194322186219e+00 -1.966356589388841059e+00 2.046345777931326104e+00 -1.103250654545880005e+00 -2.212536235916487404e-01 -2.768135184493531464e-01
3.073705447449912032e-01 8.141621101086683465e-01 8.637629233417642993e-01 -5.785259838995969739e-01 -1.694073464257180583e-01 2.820866660748191368e-01 -2.488176559563052281e-01 1.593899384293525623e+00 4.907847133267752571e-01 7.192274048977574941e-01
6.475921856872226545e-01 1.167689174266787200e+00 1.681732296691733630e-01 -1.229938947929220872e+00 3.978526932208665823e-01 -7.869837241637618330e-01 -5.560456996428794207e-01 5.744592406740571811e-01 1.237643058473811619e+00 -2.226016555234968872e-02
2.832432061041582072e-01 1.635410257615837137e+00 8.722228138399689551e-03 2.712106674929335881e+00 5.696816409226210798e-01 -2.155807765181927849e+00 6.680290660179611928e-01 3.763771231291370145e-01 1.292312273281889690e+00 5.358918255129950792e-01
-1.817253361210016127e-01 -1.339071780828407165e+00 -3.472242383551427669e-01 -7.322980267354534112e-01 -5.649375959714794115e-01 9.706312315407472635e-03 1.387054464010600840e+00 3.276308016814357682e-01 -1.192748308752816566e+00 2.693056448600769301e-02
7.962547497191190260e-01 -8.811581421793859281e-01 -1.606428620038281296e-01 6.460070886597425732e-02 -8.589483880834076768e-01 -9.207378141259751078e-04 -6.117324185855994578e-01 2.210455433238993628e-01 -9.647046271805707063e-01 -1.128708610904519016e+00
2.551234386380056285e-01 -8.703617553308613530e-01 1.784950129267642849e+00 -4.735150620480476635e-01 -1.749290152797162642e-02 1.434766321646080145e-01 -2.171574951947594201e+00 -2.156348359681393489e+00 -1.847464015358934564e+00 1.518314665358082016e-01
-8.941154789151644078e-01 1.634458976707155564e+00 -6.630915481236751008e-01 -2.384954644137505242e-01 8.174950114330427065e-01 1.009043427555497141e+00 8.468305201780561564e-01 5.285389914099598574e-01 2.638681204239294864e-01 -1.103810086901237497e+00
1.926630352672702440e-01 -2.035014294375856903e+00 -7.362026409471664756e-01 -6.255333156435788355e-01 -1.198447459511569280e+00 -1.789410995587495501e+00 -1.089609222444319903e+00 -3.585713723848467371e-02 -1.264127985922536723e+00 -7.665872173971255421e-01
-2.445049870185052043e+00 -2.069275232622434402e+00 -1.614110694869692830e+00 -2.325639834028533137e+00 -1.278767618768959391e+00 -1.231242414692509390e+00 -9.616109133906067807e-01 -8.466622569307057367e-01 -2.580363640213294563e+00 -2.196030533514046479e-01
-1.256444450129498902e+00 -1.693126466053327173e+00 -1.694794787611636488e+00 -1.851860268450964186e+00 -1.914579836114908673e+00 8.921954002740165035e-02 -7.031398418394352312e-01 -7.361738168684982542e-01 -1.614595458096106606e+00 -2.640150056813951096e+00
-2.546287516145738117e+00 -4.244841968590988834e+00 -1.988038049294104548e+00 -1.638249197246147926e+00 -2.267177306140410131e+00 -3.102655452913850365e+00 -1.973760678587632489e+00 -3.334110771217552394e+00 -2.736353519415765767e+00 -4.364693153463955255e+00
-2.405529242293713565e+00 -8.803753824183796484e-01 -1.424129251385935158e+00 -1.954383894498310736e+00 -2.869208084528547253e+00 -2.138881929514234503e+00 -3.499272494308837800e+00 -2.484032164338293658e+00 -2.066493532521715970e+00 -1.180065748268538606e+00
-2.250356707712620974e+00 -2.692599532101652926e+00 -3.247098463848479000e+00 -2.827588658415046030e+00 -2.985718500407847031e+00 -2.644329283025844912e+00 -2.038238039061548879e+00 -3.510510429746771965e+00 -1.366575876084222818e+00 -3.089639072814847953e+00
-2.233268780724833036e+00 -3.342182040304751744e+00 -4.271688182675042356e+00 -1.655765553484653374e+00 -2.573370653057362123e+00 -2.965223300519122418e+00 -2.620801982927718043e+00 -2.417095810358991237e+00 -3.148925314403626885e+00 -2.866310030633721695e+00
-1.271919158329743338e+00 -3.546965782776467790e+00 -1.451274144640188002e+00 -3.914767844176187062e+00 -2.372574429332458212e+00 -1.798691296568230458e+00 -3.560752251968426929e+00 -1.836402215684974193e+00 -2.077553360992134834e+00 -2.953086566753926778e+00
-1.263503281014079160e+00 -5.021335323297433373e-01 -2.821538159476659757e+00 -2.031125461772260721e+00 -1.449700584538951231e+00 -4.297457516394713184e-01 -1.355292714337867466e+00 -2.885862508498446388e+00 -2.265194113429922496e+00 -1.894617754757419448e+00
-2.042817076130319265e+00 -3.779053195842877244e+00 -1.217671451774491098e+00 -9.599484280504593237e-01 -3.232764388001757361e+00 -1.701823648881201967e+00 -3.765809251006912439e-01 -2.920424808752974943e-01 -1.250343787556428721e+00 -2.377032390005116458e+00
-1.160285524932046286e+00 7.375630545487009693e-01 -1.601458404765108146e+00 -1.901955611357681208e+00 -1.105565691452793153e+00 -1.315798489114265557e+00 -1.835501745390607231e-01 5.467944834113960817e-02 -8.412308204540303036e-02 -1.531496084269633018e+00
-1.112969314739710169e+00 -1.553591192869885784e+00 -1.314327773548290557e-01 -7.060412712020602832e-01 -5.308856478103880505e-01 2.384067450637124885e+00 2.621535346036718006e-01 -1.542226618710720754e+00 -9.723471198802086102e-02 2.139832658758636930e-01
-8.082286736599246790e-01 -1.295270862300649473e+00 1.834981657149792056e-01 -9.838615170262484666e-01 1.538637484172327374e+00 4.797999877409792613e-01 -3.240066455812973811e-01 8.094260952634059203e-01 -8.167165214078621338e-02 2.789267116714169159e-01
-1.326671936202592772e-01 -7.054954965112303356e-01 -1.348947988007785037e+00 7.600050167028035153e-01 -4.574660140326516355e-01 -4.593525749399363090e-01 -8.433080219129163169e-01 1.797919822705990878e-01 1.634764812795990174e+00 -1.333397795444186906e+00
-2.399141254951726310e-01 1.421553675004808115e+00 -3.350156979091681864e-01 2.999427330823435378e-01 -1.004129981886657363e+00 6.059969313293868121e-01 -1.229862263044405740e-01 8.485845267056700836e-01 9.381995730337776562e-01 2.437796298326653233e+00
4.406646109747489604e-01 2.764676949203811462e-01 1.661722152272346875e-01 -3.668965899457465318e-01 3.868889478025364093e-01 -1.893434045982305414e-01 1.591693856562214349e-01 1.278713282189709810e+00 -1.065893110086122197e+00 1.093093127329453518e+00
1.317059633116922202e+00 -1.188917031338338481e-01 -2.122221542109845149e+00 -6.078219871521269857e-01 1.307322796903590101e+00 -2.342903719393904169e-02 -1.011015415047601174e+00 -5.047751972343466065e-01 8.364559065750524214e-01 5.467332477174003946e-01
-2.389320991696943230e-01 -3.668244118146875565e-01 -3.917581490438218905e-01 -9.224101844985025389e-01 1.615375689469441767e+00 -3.223204692113398884e-01 1.217158520825496471e+00 1.521316051922451340e+00 9.983108981479603683e-01 -4.316203127180484045e-01
4.037300903366094484e-01 -2.419560639091616547e-02 -9.037018607301281481e-01 3.243592817216029989e-01 -1.179039791159802508e+00 1.187679388461563734e+00 -4.646172972983930727e-01 2.011596558728392936e-01 2.832878715461421559e-01 -2.589049737040773347e-01
5.866938014752747232e-01 -4.749036566225244282e-01 8.712972974572441576e-01 -1.345979680246748522e+00 1.263795795464118243e-01 1.938928999058284752e+00 -1.000331324605574723e+00 -6.777449705248514977e-01 5.139078496589150058e-01 1.795817819395979509e-01
3.506237880044694166e-01 4.860960150725713858e-01 6.316762533716444583e-01 1.106081550644794076e+00 4.094994880394329240e-01 -2.412793610714684123e-01 6.725364686467014685e-01 1.903788159922150225e+00 -1.326354758028837899e-01 -9.764442212503090524e-01
1.105883485210516826e+00 -1.334809750498884839e-01 -2.197514312366206202e+00 9.190443100444658509e-01 -5.353458577892806769e-01 -3.238387644277094801e-01 3.240495037103876541e-01 1.949943094296109625e-01 7.070261067702494628e-01 -5.892520029483255817e-01
4.938719977926625537e-01 -2.870505141543362448e-01 6.874222987239898552e-01 7.646990673225894097e-01 -9.358793578986055461e-01 7.662271498619154242e-01 -5.932879794722067945e-01 8.074141569077873948e-01 3.675990080761729062e-01 1.646303337440820913e+00
-2.576077771605432831e-01 -5.178710375652063602e-01 -3.690266913440930496e-01 3.934630682060338835e-02 8.088194221624287472e-01 -2.215702895583076870e+00 -1.232267349369722043e+00 -9.834715064717786115e-01 8.457257845185193190e-01 1.430972255917834390e+00
-2.871167424931493906e-01 -5.223464417239984670e-01 -3.762554874626645729e-01 1.583859563413770211e+00 -9.282106824444298354e-01 -5.826126102251976135e-01 4.502637258515051477e-01 4.008619713289094388e-01 3.406655713040662725e-02 5.856107904446875567e-01
-3.307882815956477263e+00 -8.203702203634175016e-02 -1.315879127069809806e+00 -1.424194782408347848e+00 4.895814860757631837e-01 5.015008534497409354e-01 -1.095429312754941042e+00 5.298106887193292369e-01 1.229369083404285412e+00 6.178385705184029630e-01
9.119437187153464075e-01 -4.327322688979889365e-01 -9.749114623020773696e-01 -1.809211011178304407e+00 -6.188340123434432627e-01 -1.808406473505820511e+00 8.053702752036390189e-01 -1.146788085561301074e+00 -4.398187498293109066e-01 -4.872288817145475903e-01
-9.666852217074887177e-01 -1.133369381901270789e-01 -1.782017976195237496e+00 -9.850682104665009486e-01 -1.909385531036333461e+00 -2.328341088458246055e+00 -2.171670809776364841e+00 -1.389550731350650103e+00 -1.704244273267772725e+00 -2.221384443932477026e+00
-2.824409353240147524e+00 -2.255336325154213117e+00 -2.804062902244381927e+00 -8.867127541555728243e-01 -1.384975814241788505e+00 -2.420177718244789666e+00 -2.416101093259049204e+00 -2.558550155945578108e+00 -1.775674480843425052e+00 -1.171139416903736130e+00
-4.393597116362975896e+00 -2.485536040863867147e+00 -2.358841239257810418e+00 -1.168824437311914988e+00 -1.762952511015282386e+00 -1.471959381222855523e+00 -3.094089727132017131e+00 -3.184743566460674025e+00 -1.369261153587655322e+00 -2.716755321583361749e+00
-1.512791768200478781e+00 -3.731446268816879464e+00 -3.662821311550506831e+00 -3.825455225657484526e+00 -3.997546054031424045e+00 -2.699471419784331694e+00 -2.984104480946453641e+00 -2.553307305187478171e+00 -3.467808937407226733e+00 -2.394734691626545064e+00
-3.851026534138457968e+00 -3.719180327033950295e+00 -2.644961717114231448e+00 -1.811976977697050906e+00 -3.321450981392970458e+00 -3.245009673749437606e+00 -5.043916313492863956e+00 -4.123280346976001098e+00 -3.122225078527965270e+00 -4.209230096756461315e+00
-3.243819317139379876e+00 -3.721906868598115814e+00 -4.420129680449007559e+00 -3.292999095082079997e+00 -3.475067306918977472e+00 -3.406261506534700612e+00 -4.080634469187621960e+00 -2.518110482959202923e+00 -3.289655106045894506e+00 -3.403033093211783822e+00
-2.518095339081930728e+00 -3.165897856898678420e+00 -2.547195513810114775e+00 -2.336413230877533387e+00 -4.493072994321991587e+00 -3.678858597850309664e+00 -3.955988935046737431e+00 -4.033568302120876581e+00 -3.366210997827710827e+00 -3.811718313761060184e+00
-3.303945762204344661e+00 -4.741863372937365817e+00 -2.973280898894346436e+00 -2.669895017720770092e+00 -3.815903350429059149e+00 -3.850493031454893966e+00 -1.953210594397126743e+00 -4.997135014934419139e+00 -2.261465887376644002e+00 -2.906029161215184509e+00
-3.777063091868396949e+00 -1.235028365901344127e+00 -3.927042149846403429e+00 -2.224974382474321555e+00 -2.953840700962820698e+00 -2.926911187495162103e+00 -1.812688668880147569e+00 -4.236702234648285881e+00 -2.244009867471219888e+00 -2.563191471863155879e+00
-2.382749966021945554e+00 -3.069762962245668358e+00 -2.029119525047875072e+00 -4.266180804457478715e+00 -1.870211856019191821e+00 -3.744220157203396404e+00 -2.247481814078568618e+00 -2.403217370794251906e+00 -3.090223509210062947e+00 -2.565534970901434786e+00
-2.832610937500315451e+00 -2.561073443255243998e+00 -2.368096535311282835e+00 -1.568705006658770218e+00 -9.128923538415516514e-01 -3.374982510943878022e-01 -2.712532556595161459e+00 -3.012000777069693047e+00 -3.056971944299149424e+00 -2.758789731625314712e+00
-4.284494935201075272e-01 -1.264623881943338912e-01 -2.586682653461596981e+00 -2.402021322469858777e+00 -1.830461723467491142e+00 -1.070292519648899709e+00 -1.965907100071393021e+00 -1.265373807514388105e+00 -1.477350497260539575e+00 -1.706620441742942917e+00
-4.543689140485317468e-01 -8.057951510997199973e-01 -1.548207396739498032e+00 -1.045236104763000329e+00 -7.749875219185456965e-01 -1.610839616075078640e+00 -7.616992948924988793e-01 3.111029638396560215e-01 6.141360963284106782e-04 -1.845930029639478942e+00
-4.230802315830792804e-01 -6.762211350838072121e-01 -4.278715282890035998e-01 -3.510856705442064185e-01 -1.598266239851254822e-01 -3.451294227548313276e-01 -1.730382474928932490e+00 -1.840481044379026265e+00 -1.841408217283176052e+00 -1.112189793219128475e+00
8.310949089943742152e-01 1.894141098656751954e+00 -7.568163272272668829e-01 -1.703954867386668903e-01 -1.762983996824494026e+00 -6.041247300044852997e-01 -8.496700067644745724e-01 -9.264598306700435604e-01 -9.399480741741793599e-01 -1.083876889527709997e+00
-2.250922352893851119e+00 5.653763677097325413e-01 -1.552580307638372625e+00 8.792075941625918101e-02 1.924997186807002825e+00 -5.429145753795550089e-01 -2.575048732030656318e+00 -4.767851878510607766e-01 6.586411144770940584e-01 1.603130849829673688e+00
-1.315795916512974673e+00 3.364314987958321734e-01 -4.909871824140214502e-01 -1.412918497598048273e-01 2.582700208153143606e+00 -1.295837695256003785e+00 1.358537050346313724e-01 3.353393013755162633e-01 1.014396666762179100e+00 -1.068901522147623281e-02
3.072673626737583152e-01 -4.182243131464628005e-01 2.660194315044483448e-01 -3.433268108952816089e-01 7.000098163729606693e-01 -3.473003455887367918e-01 2.850103051805155663e-01 -3.252544706130799240e-02 1.073795670952411463e+00 -5.563784596691678797e-02
-1.773032468206881429e+00 1.261921500713991673e+00 -9.057323008626189109e-01 -6.537663386488198336e-01 -5.956612940434921066e-01 1.374438093170817332e+00 -2.135674213978695501e+00 3.137748533659993733e+00 1.056056809066051816e+00 2.232389141291596657e-01
-5.489400061628638833e-02 2.855540748576569365e-01 5.211224283793383094e-01 6.452155859500570134e-01 5.556044660034484828e-01 8.958068125524881742e-02 -1.973384203073260956e-01 -1.512732836535116976e-01 -1.949082803526810126e-01 1.133770096867064536e+00
5.935567222110863517e-01 -2.940388637334106825e+00 6.484542741253357390e-01 1.885015689756482649e-01 -2.214555170052047092e-02 -3.948979115150755281e-01 1.124112719985256081e+00 9.609964294180283195e-01 -7.728776832154182763e-01 4.070089260073177506e-01
-9.716642415675268429e-01 -1.383013336051088782e+00 -6.666013353888669002e-01 8.317594038242552834e-01 9.380791977794971093e-01 4.857499532630453754e-01 7.250005917022326329e-01 5.807706984405477391e-01 -6.414850808890550926e-01 4.266307134142478530e-01
7.893378786029165983e-01 7.164912896359285632e-01 1.128673128201995279e+00 7.914763339262894659e-01 3.487734494797226636e-01 9.065988367704723716e-01 -2.814334385056458873e-02 -8.169226114980763231e-01 -2.348204787290567308e-01 -9.265066616328324622e-01
-7.315499858642676712e-01 -2.187424637425152973e-01 -9.874351395121246933e-01 -1.042482243346154816e-02 -1.917455963351833992e+00 -8.728292579653901262e-02 -6.692638332943041946e-02 -7.425106414388817910e-01 4.963614558276772670e-01 6.846859782252495696e-01
-1.773831750250651096e+00 -9.019529916504741562e-01 -1.162518509598648331e+00 -1.347617332586133199e-01 8.298533300109377508e-01 -1.045734494575320417e+00 -5.843762117323837435e-01 -1.838281555823737090e+00 2.525238949082703743e-01 -1.555826801679470295e+00
-5.238834645773213783e-01 -1.908715662287534531e-01 8.612515831470497485e-01 -8.016452980730945921e-01 -3.159297682873796198e+00 -9.207826103753747882e-01 1.113002803850109412e+00 1.252163906758181566e+00 -2.123003714729445046e-01 -8.217600994177138851e-01
-3.182715150895282785e-01 -2.071401305393070658e+00 -4.180614208337737892e-01 1.062110018633063147e-01 5.822247762328103260e-01 1.323481100204769723e+00 -8.127260978555413962e-01 -9.294882515711213600e-01 -3.925450774761589101e-01 -2.290891447628662370e+00
-1.867068884654483396e+00 -2.122593759075339648e+00 -1.724520345999616344e+00 -1.050573563407233957e+00 -1.852158462891279722e+00 -6.267912532865251851e-01 -1.724791418811385313e+00 -8.875605590825628166e-01 -1.321194996734094573e+00 -1.360012170470691562e+00
-9.108137333192883878e-01 -3.011911209933752609e+00 -2.078656323780856852e+00 -2.144111757029676824e+00 -3.044050707107433418e+00 -2.406849275653351938e+00 -2.242321206114455734e+00 -5.330287162798494904e-01 -1.795661145099104239e+00 -1.726891304171576103e+00
-1.890087799995035178e+00 -2.582670469818334702e+00 -1.607754781953568468e+00 -2.046933598047015135e+00 -1.610766124646554553e+00 -2.664107269864403271e+00 -4.530971575070054769e+00 -2.596552965734144180e+00 -1.402122746456895275e+00 -1.570638871463304165e+00
-2.751414719440469892e+00 -2.291103628355162236e+00 -2.697977292249216230e+00 -1.874165115796684322e+00 -3.261548265722403528e+00 -2.582343446491027539e+00 -2.658960658414728506e+00 -1.497098921387764348e+00 -3.127317414603795420e+00 -3.197800353021530650e+00
-3.855499616454403977e+00 -3.390964885682438812e+00 -4.602821598780939993e+00 -4.600891401916956447e+00 -3.986847264805364777e+00 -4.016078932584703054e+00 -4.021366575394147880e+00 -3.013281500502817067e+00 -3.005527246020677001e+00 -2.370683745730417513e+00
-2.893424271937554693e+00 -3.191758893046163781e+00 -2.875606301041903290e+00 -4.106480170401214380e+00 -3.332326220143942752e+00 -4.115528906706915180e+00 -2.804585502898826910e+00 -3.905787743828719627e+00 -4.842219413053182819e+00 -3.378778929442325385e+00
-2.874642732923972765e+00 -4.529246926137621365e+00 -4.356000949076174855e+00 -2.220285581124041840e+00 -5.791476550410841639e+00 -3.179557091234843202e+00 -4.338997623986084129e+00 -2.564725409852351756e+00 -3.703033255681762448e+00 -3.260589792065464287e+00
-4.025624548919854995e+00 -3.532663020130830667e+00 -3.253127505440899458e+00 -4.264435621922371134e+00 -3.850734773296723645e+00 -4.241566942950066199e+00 -3.499534064768067942e+00 -4.626606893952581956e+00 -5.707976375676763858e+00 -3.391689202454261309e+00
-1.462075417110785480e+00 -2.810767576200846385e+00 -3.015863839480334541e+00 -3.119585098490298858e+00 -4.553715650874907261e+00 -2.511276957028202528e+00 -4.248515881232620472e+00 -2.790316450502065226e+00 -2.365109495579166499e+00 -1.866058010647289489e+00
-3.171971054532642942e+00 -4.077536167321055949e+00 -2.360232959269182640e+00 -2.643499225339514869e+00 -4.382528932417653067e+00 -3.454546175816203046e+00 -3.425269896138254833e+00 -2.092857699921307990e+00 -4.279720951261301032e+00 -3.505465207819136175e+00
-2.763166001211409650e+00 -3.993277102280555546e+00 -3.129593690467026512e+00 -2.929910519368546407e+00 -3.541395372061833857e+00 -1.802085455975669159e+00 -5.072424771377269437e+00 -4.189131891471411961e+00 -2.918069253740479763e+00 -3.992056099331672492e+00
-2.581078107795253374e+00 -2.026237132024347520e+00 -3.088693102480310149e+00 -2.357848004234432082e+00 -4.275630814259763213e+00 -3.071601862068568334e+00 -2.992938420175734304e+00 -3.144852902401785943e+00 -1.419489713171886658e+00 -1.239885932817172964e+00
-2.861150163212705877e+00 -2.273601606141567366e+00 -1.343447388805491638e+00 -1.229157346074487567e+00 -1.063006418167984357e+00 -3.113247506273231213e+00 -2.423708095669362628e+00 -3.161454254554882048e+00 -2.212488675744535893e+00 -1.387975548783681567e+00
-3.565949891468711552e-01 -1.623677634382736601e+00 -1.892112306320332449e+00 -1.431461584857760316e+00 -1.998796620505497001e+00 -1.331988434279727518e-01 -2.480650121653753981e+00 -1.512520320793670381e+00 1.455649008100849406e-01 -1.951596130178099298e+00
-1.303161315109646834e+00 -1.328503162394028436e+00 -1.798660645106306744e+00 5.437921148660536108e-01 -2.356439384668372661e+00 1.375549384237468665e-03 -1.824644569041401043e+00 -1.377839632211740550e+00 -1.571675775527521024e+00 -1.186891971911969268e+00
-2.167255440554471058e+00 -2.825904440897170633e-01 4.270131522700575943e-01 -1.854479139117914510e+00 9.736319983470831385e-02 -1.169651688512063803e+00 1.449928300754663446e-01 -7.108476515516756189e-01 -1.200077580575830805e+00 -5.356604726579180520e-01
1.482334234127552497e+00 -5.955472740437379731e-01 6.503353534374557710e-02 -1.447200465406639491e+00 -1.032170399077067646e+00 9.417900175168242294e-01 1.232464117552503957e+00 -7.127335080457944394e-02 -5.014469826311604983e-01 -4.301204334132300855e-01
-1.432665513164921745e+00 4.027565211278900104e-01 7.953892025762353546e-01 -4.949755628816246422e-01 -5.407089005383889369e-01 6.884199729048915417e-01 -6.590504381575013060e-01 -2.073738221214868893e-01 2.084482303960145444e+00 -3.832806217905306845e-01
-3.779800965645409017e-01 -6.585263919485856432e-01 7.293826331647333960e-01 -1.812904390581766001e-01 -6.173013014340600346e-01 1.349445056007311239e+00 1.370671702582895390e+00 -6.258007573833977988e-01 -1.816038360067178781e+00 1.002669213420580574e+00
-6.846298257600039738e-01 7.906255991627686441e-01 -1.970103817711835514e+00 8.925973382993092065e-01 -1.211171929280781212e+00 7.307641190665244979e-01 1.427306783643410640e-02 -9.539394193966448388e-01 -4.070363129267804969e-01 6.863184569567007953e-01
1.058944531152342383e-01 5.844129804724842447e-01 1.976440584515485543e+00 -1.564241611711051361e+00 1.617212574968623917e+00 1.043559375232129272e-01 -8.987840483231281929e-01 -1.330313625738989813e+00 -1.891203907770334924e-01 9.216501119244593365e-01
-1.275491206073139094e-01 1.511154921455327926e+00 -1.475697792797162622e+00 -3.262021537945437866e-02 -1.263711166717136125e+00 3.426236660835508818e-01 8.868873900948035516e-01 -3.764037979331673056e-01 -2.604213907313956522e+00 1.988053541518655654e-01
4.367223880819368631e-01 4.042932327813358317e-01 1.190756349542364090e+00 -1.102270466054380504e+00 6.491568780618691692e-01 1.164563526142696537e+00 -1.783220048098999699e+00 4.287658976882317008e-01 -5.121598648342391424e-01 -1.313553720292217342e-01
3.036171945860713928e-01 -5.175208815189457079e-01 -8.102953249471797070e-01 9.956322025424182987e-02 -1.124051807934604463e+00 -1.232346757421370009e+00 6.461953873205839027e-01 -1.016534552080221809e+00 5.834357712110521677e-01 3.601572938910126975e-01
-1.799941824045837357e+00 -7.473921367683509231e-01 9.958982622640473181e-01 -6.179497100410751287e-01 -5.192827579769629942e-01 3.123787135199890611e-02 6.645650278232032582e-01 -1.525692329821036475e-01 -9.249552836849629367e-01 1.044734633098491905e+00
1.448075498329089772e+00 7.404316142519627997e-01 -5.804218933344494624e-02 -3.166330285027461611e-01 -1.060187929305244303e+00 -3.470959278377317436e-01 5.383541258925286788e-02 1.368619947376088941e+00 1.770725845663597697e-01 -1.951825778436854897e+00
-1.123549846812716552e-01 -1.581693890818151260e+00 -7.064077754620594618e-01 -9.802445100099778375e-02 1.176187996358703636e+00 2.106329490423547224e+00 -5.926961491245277824e-02 -5.029920731498824793e-01 -1.055316181115517615e-01 2.386329030998330381e-01
-1.725060091869384804e+00 4.380972313541084406e-01 -7.268978300122048708e-01 -7.443575578475226662e-01 -6.887185986915335123e-01 -8.077416903022537342e-01 -5.283743569572436627e-01 -1.241956056155159915e+00 -1.448454000039211653e+00 -2.136369354957463162e+00
-9.235230260972296934e-01 -1.464035053338744063e+00 -9.038206701386840569e-01 -2.196459704500337007e-01 -1.871478038792635523e+00 -7.430421360284373833e-01 -2.664031324617820218e+00 -1.208848620971277432e+00 -1.323094040996173337e+00 -1.398533128833550521e+00
-2.604950892739061441e+00 -2.552964897034583736e+00 -3.329393953592397537e+00 -2.877974613634336709e+00 -1.260014605088220385e+00 -1.529416223698667476e+00 -1.141085158804581168e+00 -1.623026081797452225e+00 -2.948646251917597105e+00 -3.189303591890560341e+00
-2.535193601940523234e+00 -2.605900025029651790e+00 -2.271296810320333925e+00 -3.082538959514763643e+00 -4.713118676055358947e+00 -2.085253286628697467e+00 -2.895114928708150792e+00 -3.226781913925329537e+00 -2.628702097920911029e+00 -3.089088853302291326e+00
-2.849557168051789269e+00 -3.217651727817558704e+00 -2.454193199065062281e+00 -4.105311851702561299e+00 -2.615896053260945209e+00 -3.375825048374590409e+00 -3.780215153828125896e+00 -2.531584946886761944e+00 -4.108237037168716910e+00 -2.171529473342047822e+00
-4.850405313406831453e+00 -5.556057778522528245e+00 -4.678465981766465553e+00 -2.397941709851927339e+00 -4.971734217465500372e+00 -2.752261111616315148e+00 -3.969601371677644153e+00 -3.891313994274662846e+00 -3.362157275766496145e+00 -2.796263374656102751e+00
-3.046165942259886350e+00 -4.348825399633598821e+00 -3.302778127338203085e+00 -3.324419395127561572e+00 -3.223893442982648239e+00 -3.008684249358158258e+00 -4.024385554039840329e+00 -3.373660035154943948e+00 -3.749386795418344853e+00 -4.428116821933141267e+00
-3.288129061811927212e+00 -4.504593307503483857e+00 -3.295524370356390342e+00 -3.731363693328813902e+00 -4.792660388589556675e+00 -4.682743231460625211e+00 -3.664065632308215470e+00 -3.248330517805749551e+00 -2.976302824723660923e+00 -2.575278821004005625e+00
-4.126707266782851491e+00 -4.100019504427724115e+00 -4.447585000250604104e+00 -3.701570907265870680e+00 -4.779208488720894543e+00 -4.669347090361688934e+00 -4.499119753020243806e+00 -3.267394075321945923e+00 -4.000512778017494497e+00 -2.560337708757435493e+00
-3.438611459864359343e+00 -3.280362417585844348e+00 -3.135271431118247687e+00 -2.809839518889417409e+00 -3.112509500302503174e+00 -2.371403952049334851e+00 -4.879665609389109093e+00 -1.934258923517054196e+00 -2.794488054042477021e+00 -3.247302061255310512e+00
-2.541859571434640586e+00 -2.692108146431713145e+00 -3.947201542137396491e+00 -3.904705152214781094e+00 -2.845442166175169429e+00 -3.754296946093348186e+00 -3.783265088042206070e+00 -2.247013360853455932e+00 -3.586178833189704207e+00 -3.450234238052416469e+00
-2.330477145295386965e+00 -3.059222548931623376e+00 -3.584286397988171835e+00 -3.315460911753894901e+00 -4.182418367149997707e+00 -3.116552975441901019e+00 -3.389239770079390812e+00 -2.957049491401475994e+00 -2.172759030172656036e+00 -2.686213825768427821e+00
-2.335686135905870486e+00 -4.635898022483054604e+00 -3.569807846862699474e+00 -3.165784528384055552e+00 -3.125640776623726413e+00 -2.623711499498323274e+00 -3.575629064070607654e+00 -2.187487466645828160e+00 -3.567485878577693725e+00 -3.246228216900384211e+00
-4.984025955070923164e-01 -1.522490140337809272e+00 -3.213316659381481255e+00 -1.715879888006849985e+00 -3.635001585083748488e+00 -1.966235896854693133e+00 -2.122905405118698408e+00 -2.628248396413919163e+00 -2.935437490221442403e+00 -2.799858839082744577e+00
-2.822158526853542515e+00 -2.737764445168444638e+00 -1.448441268701751383e+00 -2.101854108224832984e+00 -1.289319938057286175e+00 -8.532684210871465114e-01 -1.962479001456177707e+00 -1.549459050571813545e+00 -1.720503974460184438e+00 -1.593362287022514368e+00
-9.777051780915380075e-01 -5.301216446075767141e-01 -8.649602841813076592e-01 -2.128049881158586398e+00 4.125283097510137886e-01 -6.996658466986270808e-01 -1.596799830731698400e+00 -1.345866800719393686e+00 -6.543374068201335270e-01 -1.879696526442663718e+00
6.349330145028114769e-01 1.497215584847038095e+00 -1.753783954149911617e+00 -1.799506668869705006e+00 -3.864143610121623801e-02 3.349247064466938095e-01 -7.888854941291923994e-01 5.234753249187491519e-01 -1.483967074542051012e+00 -1.097483276171320465e-01
-1.308615593392239873e+00 1.318920560136672249e+00 1.447336152255729091e+00 -9.698380854077200963e-01 -7.481781155130847738e-01 1.584527961028010523e+00 -7.435840345025569453e-01 -6.601004990198707789e-01 2.528749401189008816e-01 -2.316673075830873341e+00
-4.522695413564734590e-01 -8.652005931503176095e-01 -5.915479639846800142e-01 1.413963258325772854e+00 -1.213474610164801293e+00 1.191900953662811791e+00 -4.480539124349476321e-01 -5.646842870029583628e-01 9.512074671338184295e-01 2.236948289189405192e-01
5.000450271321849049e-01 9.532854226846518841e-01 -3.377667972390743789e-01 -6.122371629075473720e-01 -1.084094665550839443e+00 -6.937808614856688649e-01 2.916137950057912764e+00 1.219128163582870350e+00 -1.330893892063401251e+00 -1.324563310803853033e+00
4.818660617184915007e-01 5.472647973779669606e-01 5.488838353173643991e-01 -2.549557935536978515e-01 -1.254542600029002197e-01 3.278795241593573939e-01 8.589300629333040948e-02 -2.219300372747535111e+00 -2.297996305751938140e-01 -8.514064342603135938e-01
1.752114189085120510e-01 2.985259002603410039e+00 3.674816654743043864e-01 -3.135296861723979034e-01 9.218015019772521912e-01 4.826878872092126849e-01 4.200944904518412737e-01 6.068505932156710303e-01 2.056543564829541371e+00 -1.130888435325915653e+00
4.736320767188213487e-01 -9.263811335259650726e-01 5.456267724605122771e-01 -9.269635146278309978e-01 -4.219294555810493841e-01 -3.035591952519858250e-01 9.758167193437026210e-01 9.363369867308286576e-01 -1.245717396880339223e+00 5.487654537871547444e-02
-7.095966689791848303e-01 -1.258714236397616482e+00 -2.524979276310841403e-01 -3.339146963202835328e-01 2.381388179928785931e+00 4.130382193951869230e-01 -1.382529245462140954e+00 -4.441800877879096832e-01 1.009952988817244268e+00 2.006836714628180918e+00
-1.600225525910108582e+00 -1.881248081427611352e+00 1.739149543205383619e+00 3.360037751806321249e-01 -9.331253639051648729e-01 5.018354709771577493e-01 -2.647386527866657513e+00 1.901065507609430716e-01 2.805883477314545238e-01 8.223440959774933612e-01
-1.151150700771921942e+00 3.052124718393155189e-02 -9.420295998359625722e-01 3.636534642492948999e-01 -1.033545554595011406e+00 -5.789243702132498282e-01 -1.087714640173667036e+00 6.237237831641330166e-01 5.306297450425330187e-01 -6.027646559587697128e-01
-2.980792434735786145e-01 -1.731711251678790253e+00 -4.753086825804715976e-01 -5.087455647622569632e-01 1.756745679937151694e+00 -1.486701746167625737e+00 1.176074368424865124e+00 7.380142329897116937e-01 -1.077999141813733436e-01 9.677532646667319494e-01
-9.348611098118290164e-01 -3.414582300542258197e-01 -5.636213156036316008e-01 -9.750512497460946115e-02 -3.787134563836723200e-01 -9.016842447284423301e-01 -1.928503396294195760e+00 -5.782336168673081200e-01 -1.409873966021644387e+00 -1.019114761405236935e+00
-1.684330840981336230e-01 -1.947967012882035220e+00 -1.161010513318976756e+00 -2.049688770694065187e+00 -1.216587511399648047e+00 -2.976409130798963520e+00 -1.515728990989008151e+00 -5.100107789098812239e-01 -4.399409359347778992e-01 -1.819613702184212256e+00
-3.320248367109913001e+00 -1.484799276466682638e+00 -2.254054445344470636e+00 -3.321306790319482616e+00 -2.552410855521827671e+00 -1.459754822034439403e+00 -1.843601847583883124e+00 -3.259445223090638333e+00 -1.381325542084108626e+00 -1.226334956855207547e+00
-1.591608638822125332e+00 -3.432934249871150367e+00 -2.525974891347033680e+00 -2.941372926673566202e+00 -1.648623694421760932e+00 -1.957682686615110024e+00 -2.414652882585222482e+00 -2.140734650253480975e+00 -2.085230515164165688e+00 -1.556672289970238099e+00
-2.832504822069177308e+00 -2.283515683163713117e+00 -2.821935804589449592e+00 -2.275554742845833811e+00 -2.690765312172487711e+00 -4.466912565368724941e+00 -1.734947232568249786e+00 -1.973889145287420988e+00 -2.679343656001806018e+00 -3.114740200725962360e+00
-3.402315236181509661e+00 -3.290850312590896110e+00 -2.553930468725755354e+00 -3.463745385702760249e+00 -2.141552995320104902e+00 -2.750266579032505820e+00 -3.405666430399596045e+00 -1.836831776049490106e+00 -2.813667470459867648e+00 -2.720526178455251909e+00
-1.738366643128555156e+00 -4.385759727775248251e+00 -3.780182014040047722e+00 -4.359349741883881357e+00 -4.522212501440910692e+00 -4.535700850086548108e+00 -3.542330321421014006e+00 -3.915244000331664864e+00 -2.706059871640190462e+00 -3.312967221481268432e+00
-3.562846657579842091e+00 -2.199431319169577126e+00 -3.411503284652257939e+00 -3.015731801982300286e+00 -4.344825254601072828e+00 -2.805589247865227787e+00 -3.934742246659687304e+00 -1.755592390230461097e+00 -3.331887407363385734e+00 -3.378118954616025071e+00
-3.773275913888393340e+00 -3.414908702957341280e+00 -3.354649629298716906e+00 -4.206457032346947678e+00 -3.875126990942355576e+00 -4.040857599962580871e+00 -2.408057644545430254e+00 -3.507506745440140072e+00 -2.976754337226997560e+00 -2.252575075889939438e+00
-3.149954929844394069e+00 -2.043420484749369326e+00 -2.789496052206258625e+00 -3.267921074151621585e+00 -4.976200535186568352e+00 -4.306927530964091311e+00 -3.382262623542931390e+00 -3.079853948549265308e+00 -3.620477527773788839e+00 -3.686799617658085282e+00
-1.597160455012863300e+00 -3.431319205914626913e+00 -2.344196797752798211e+00 -1.648828716551108853e+00 -3.396628130473199114e+00 -3.169816609795831130e+00 -3.507254849995251611e+00 -2.943820262731046355e+00 -2.640704617065001703e+00 -2.954856799652405108e+00
-3.618335418445391749e+00 -3.946232375237354262e+00 -2.884294535734611920e+00 -3.264004673200765261e+00 -3.157896245833797355e+00 -2.163646804210684671e+00 -3.597937604284816793e+00 -2.960155109146413110e+00 -2.969767130354608931e+00 -2.357083236249944314e+00
-2.829732897192990926e+00 -2.633269342431873383e+00 -2.370932306690719749e+00 -2.158317197960998080e+00 -2.423002004054353176e+00 -2.293477622052450648e+00 -4.261701693943534153e+00 -2.133932563756371970e+00 -3.223296158056452310e+00 -2.554173862445417775e+00
-3.983439220575081929e+00 -2.493533958311349163e+00 -3.052175766216517427e+00 -4.516958086587035126e+00 -2.997082369157688664e+00 -4.854622413475270015e+00 -3.827509236851351027e+00 -2.021453131726219432e+00 -3.800907547290586663e+00 -2.975022270257507095e+00
-1.222956652376535169e+00 -3.641549622089160110e+00 -2.553793693356744221e+00 -1.207773185757296641e+00 -1.357001795836203506e+00 -2.167442723497769563e+00 -2.403508622196445454e+00 -1.274340322741173148e+00 -3.064041487432784372e+00 -3.009036737379051640e+00
-1.484783903225899815e+00 -6.771790069342216167e-01 -6.326356329069874329e-01 -2.614627346535823627e+00 -3.096001229636369256e-01 -2.587466938962716512e+00 -2.345680760592297798e+00 -8.761729889903471236e-01 -8.265150497793283257e-01 -1.165114669120329349e+00
-1.212705000030118496e+00 -1.367237729636842092e+00 -1.214217597256170400e+00 -4.731736142000881884e-01 -3.354631378881181014e+00 -1.621460801977171906e+00 -9.521156378903421480e-01 -1.985802325712694216e+00 -6.454482372765227849e-01 -1.655040054740332778e+00
1.152519689387745849e+00 4.797936790144589625e-01 -1.240306087561995563e+00 -6.614326398278328467e-01 -5.326570439863456130e-01 -5.280880114268281522e-01 -5.483650050554595978e-01 -1.500545142531874987e+00 -9.339118864288600275e-01 -3.642105675654463415e-01
-6.856257962596332134e-02 -1.387841612770099209e+00 4.823015137979913547e-01 -9.156932896648801723e-01 -3.093893835061764866e-02 1.249514698602062213e+00 -4.607024313359739942e-01 5.906705930090734580e-02 -2.922916827262289075e-01 -7.700367182460711168e-01
-7.344533368514762905e-01 -9.943304279685550862e-01 -2.505978247390848179e-01 -1.611839149582320996e+00 -5.446719926108496423e-01 -3.441520953257400095e-02 -4.046921430256227858e-01 -4.475321534704591597e-01 -1.096787994320447129e-01 1.419071088957805371e-01
7.871212770768759581e-01 -7.071223579165384354e-01 -1.203921634659635087e+00 -1.042787682218122569e+00 -4.872374990603418610e-01 -3.215286665081149575e-01 -7.734600654154374366e-01 -1.296213309914908018e+00 -5.144962938026846899e-01 1.099860412084291000e-01
5.950294658355647082e-01 -5.574230531083211870e-01 -4.129978221434340568e-01 -9.266983088473107477e-01 -3.143917037477642062e-02 -8.484286341908146012e-01 5.731278132412001014e-01 -1.785866491934111178e+00 -3.596296724524624122e-01 3.011073391917420961e-01
1.838345163225043599e-01 2.693033663980496595e+00 3.498000245679075415e-01 -1.004054596842010261e+00 -9.546424708907302881e-02 -1.776246333466451777e+00 -8.059974929676087807e-02 -8.330560570007586874e-01 9.153902755601617258e-01 -5.495402745955348944e-01
-1.167659309138533025e-01 -6.355944096938808130e-01 1.738825280770392778e+00 -3.214732058995352637e-01 1.832517720180554255e+00 8.134110982997122541e-01 4.820640925760157347e-01 3.695913422195332143e-01 3.936892207201380667e-01 -1.927927980198226310e+00
-2.788836774816010333e-01 8.432587382531071540e-01 -7.573899038651776827e-02 -1.429685279668633013e+00 -9.929452178158132414e-02 1.687650590708505316e+00 1.244394214433689028e+00 2.191186151923350117e-02 9.458901694645936997e-01 -3.949673870036042866e-01
-1.704589597879859086e+00 -9.253909136110846090e-01 1.535418693428731940e+00 -3.608803825403409937e-01 -3.797440448700752369e-01 -3.150811941049274645e-01 1.896663915302030157e+00 1.789015415615362592e+00 2.184190938184083386e+00 -2.219856555767768524e-01
7.927993261954316417e-02 -1.565872601608966130e+00 1.516488931289204922e+00 -1.375590812830298049e+00 -1.697687899096550213e-01 -1.165575821990815220e+00 -6.284569221295759345e-01 -7.314525589575996412e-01 -8.100319336795003267e-01 -8.777366083455123702e-01
-1.156614881359207869e+00 5.824855818287550946e-01 -1.453147554979483447e+00 -5.755205031356532830e-01 1.003249140960138647e-01 -6.870807678134346341e-01 -8.713656925145364385e-01 -8.524761461365581994e-02 7.899167015899514199e-01 -4.014302640772894892e-01
-1.876469684002085136e+00 -4.247287614266585520e-01 -1.815426898303138747e+00 -1.099927434155425710e+00 -1.205878415008694526e+00 -7.295180062136121801e-01 -1.429920709755002184e+00 -1.154455111459127936e+00 -6.020939326359405763e-01 2.926788124038440242e-01
-2.013693922981741213e+00 -1.160814916621541126e+00 -3.222258849637363198e+00 -2.843950173326419861e+00 -2.013356822395835799e+00 -1.747345676499188816e+00 -1.932402626521697142e+00 -1.588001120502729790e+00 -1.990871882460107267e+00 -1.817863317664895062e+00
-3.724447627278114403e+00 -3.892484773501323492e+00 -2.332900391054112177e+00 -1.809491677654654129e+00 -4.327258433751500100e+00 -2.151167447383512954e+00 -1.720403976154007086e+00 -7.752677307673548901e-01 -2.427695410963757183e+00 -2.262153379136497833e+00
-2.034428394909144178e+00 -4.125874565196586907e+00 -1.858712255795347934e+00 -3.397941692918865719e+00 -1.496763923098936688e+00 7.088379248182902215e-01 -3.556172551819139827e+00 -8.167542078482643575e-01 -2.259682248625298762e+00 -2.352211024741210021e+00
-3.292541442907487959e+00 -3.485576241337741799e+00 -3.431059225836883719e+00 -3.482558718644664708e+00 -3.510847500490160922e+00 -2.695225284503879326e+00 -3.450409052562511736e+00 -3.480095204530949449e+00 -2.503352254910365282e+00 -1.941366929203603098e+00
-3.817662764839733214e+00 -3.411283558995994003e+00 -3.839135066555203757e+00 -2.805360991994320763e+00 -1.684365066386373622e+00 -1.244056067681015065e+00 -3.352874693826357166e+00 -1.612762687769195402e+00 -2.422841238787123874e+00 -2.768222714278905094e+00
-3.706698364482231334e+00 -3.100843393711264273e+00 -3.425990688836093145e+00 -3.626627507740907586e+00 -2.551446359076676274e+00 -2.123941062700771987e+00 -2.533825434962114986e+00 -2.457913175352743007e+00 -1.524903121614131551e+00 -3.133397474564588059e+00
-2.204737964715939746e+00 -3.190706470230234792e+00 -4.516453731105343650e+00 -2.515019190146992045e+00 -2.760214693618471049e+00 -8.311865643150956329e-01 -2.501650905832476290e+00 -2.142968590585571320e+00 -4.298644614606136116e+00 -3.059268780571819502e+00
-1.888330997363126373e+00 -2.325764272749712980e+00 -2.980217403860419889e+00 -2.853576459456200531e+00 -3.501122252378572774e+00 -3.222642208051873514e+00 -2.605121506773401485e+00 -4.297352052877871031e+00 -3.328699684941002435e+00 -3.752704169012759383e+00
-1.652619116335181770e+00 -1.058647093563039210e+00 -2.419199864121742927e+00 -1.211350326114499998e+00 -4.035561604595788054e+00 -1.057813049734664279e+00 -2.475715772736217790e+00 -1.588667662052383855e+00 -2.441826885463334929e+00 -3.707456203728316080e+00
-3.414804199450416800e+00 -3.291105142578775844e+00 -2.265923195704949933e+00 -4.250663639382902481e+00 -2.005828815895703165e+00 -4.070733276829762382e+00 -3.551472175492085270e+00 -2.060010297753715580e+00 -5.092782823086937860e+00 -2.854393056614377588e+00
-4.665082019842841987e+00 -3.550753363071583735e+00 -3.772076799118103896e+00 -1.772203616871061094e+00 -2.343333417305776933e+00 -3.738069179564956990e+00 -2.815155543117242143e+00 -2.634716140425557462e+00 -2.864920921943628240e+00 -3.622338381007907060e+00
-3.197109933602491960e+00 -2.998420791381421591e+00 -3.530441332775116070e+00 -2.963613627943513240e+00 -4.238166968385813860e+00 -4.648648223888380393e+00 -4.114323912278528894e+00 -1.980161538193588422e+00 -4.387914958879209237e+00 -1.629342441600650782e+00
-1.930551902250431162e+00 -3.220843503126782803e+00 -3.544750553907324075e+00 -3.654710092870993687e+00 -3.769362710681235296e+00 -3.301468372826007247e+00 -3.949217514509139715e+00 -4.117324578829252957e+00 -2.652271589145606345e+00 -3.055973027918835072e+00
-4.624891267638521875e+00 -3.767144760474769871e+00 -2.038475953009036168e+00 -1.112308973091433284e+00 -1.896862031268357951e+00 -4.251355884710279476e+00 -3.234139223165318988e+00 -3.463420998724781263e+00 -1.527989924571654612e+00 -2.872504030908481720e+00
-3.026383107119656746e+00 -8.374545117498171098e-01 -2.629074069397767666e+00 -3.283820215494682948e+00 -2.131018618432368061e+00 -1.341723745546366198e+00 -3.857224118121511669e+00 -3.377650000369190053e+00 -2.260576129585844196e+00 -1.560455572325968987e+00
-1.872851201636446805e-01 -2.029675093708823042e+00 -1.678347017726149248e+00 3.384165796135190085e-01 -2.456017457970004259e+00 -1.518127146385297443e+00 -1.109630074488733964e+00 9.529427541705244586e-02 -9.277924315776115982e-01 -1.472765178798159047e+00
-2.603431352405527477e+00 -1.449004054931754881e+00 -9.730612582668470012e-02 -1.307252259722190946e+00 -3.458046127107583523e-01 7.319454037876749197e-02 -7.775757328970889226e-01 -8.987626895897328494e-02 -9.701158011301925788e-01 -1.540054848003225896e+00
4.914410000097337861e-01 -2.841680195171735201e-01 -7.674198793404873875e-01 8.543063179437256072e-02 5.553827259457423393e-01 -2.151048568343433942e+00 8.810589973671549835e-01 -5.116012526153705942e-01 4.670295893961443623e-01 1.697319841901032134e-01
-1.664230958658328374e+00 -8.027916995353341356e-01 -3.332330069346299828e-01 -8.076407689178313198e-01 1.638736156447765158e+00 -7.981240373113750453e-01 -5.932862975100611225e-01 1.025419405037807791e-01 -1.214890996132111933e+00 -1.079442992934075196e+00
8.951646663900565681e-02 -3.414855583095952607e-01 -9.341868225345882626e-02 -5.294468223156258979e-01 -1.522712155715259197e+00 3.717960469279348867e-01 1.754922573379148476e+00 1.486057808036094635e-02 2.138828011690057374e-01 5.166191615693546124e-01
-1.269330496546699161e+00 1.702514658129605563e+00 2.023287964228020208e-01 1.631856899089108914e+00 -7.330329955239893724e-01 1.818061922557824728e+00 7.751554940347831213e-01 5.530400858523584207e-01 2.340244543531479482e-01 -2.485286180744493700e-01
1.200531658473872554e+00 1.403598698480469642e-01 -1.967069703587152274e+00 -1.117186461707002421e+00 -1.858457521927472933e-01 3.099989831655550754e-01 -5.658848889989583769e-02 1.218970789793663245e+00 -1.951101864038624845e+00 1.435879365051601908e-01
-1.817979870565640477e+00 7.581520369190737352e-01 -9.557458559672682430e-02 4.033941816767276367e-01 -8.734390419222718416e-01 1.247863275362715907e+00 1.041609784975919384e+00 6.393953771095024496e-01 -1.343416016393778889e-01 5.663527225917227570e-01
-7.068938575695761228e-01 8.505713288600152966e-01 1.615760385714078318e+00 9.974257612140465801e-01 -8.510469633125516964e-01 2.987465846173943951e-01 -1.299153517362740651e+00 7.790531496646435627e-01 4.395335444883231579e-01 -1.909539736884992678e+00
-1.161961516589789856e+00 -2.862239556926885475e-01 -3.034976256982977461e-01 -1.309821806294573454e+00 1.158117071621986710e-01 1.890109269194195363e-01 -2.106953551586610573e-01 -4.965194665385687656e-01 1.034796813194020615e+00 1.602447525065328282e+00
-7.569489055076364936e-01 -6.687708531180871496e-01 3.176642956762154579e-01 -6.640865016101462626e-01 -4.627357518635185629e-01 7.150121450514250743e-01 -1.944696263638098443e+00 1.478258746820200864e+00 -6.657387399135254735e-02 -6.249097284797651142e-01
-9.038570819340882023e-01 -3.654619058781240493e-01 -2.331719117615751902e+00 4.620645610647654555e-01 -6.391908449280538917e-01 1.817160447882993635e-01 6.698983329785973551e-01 -9.923397238272856358e-01 1.684519037949253617e-01 -6.551432066779013796e-01
-4.962163192757365060e-01 -3.132040068131482613e+00 -1.133251946028630774e+00 -2.321873874523673553e+00 -7.098211462891533818e-01 -4.859559610077135994e-01 -1.443936153168996706e+00 -1.439808680128920271e+00 -1.324820582121124302e+00 -1.580978199563285669e+00
-6.139459065236035906e-01 -2.112970068461910156e+00 -4.188848235883752658e+00 -2.343138738953683742e+00 -2.558181259275470243e+00 -2.878770607324266262e+00 -2.391314028939424574e+00 -1.498868058784759594e+00 -7.056216003183972685e-01 -1.000990627890933071e+00
-2.313849061382347916e+00 -1.703350372598812612e+00 -2.558185099472908064e+00 -3.316222232804411973e+00 -2.529389947617695089e+00 -3.656848062806118183e+00 -1.787666326910949177e+00 -2.577443760741937151e+00 -2.120042140440754341e+00 -2.642227287192715490e+00
-3.396320840959138998e+00 -1.866505404972666593e+00 -3.999175273657696650e+00 -2.749828444496476010e+00 -2.140641015083949661e+00 -3.718155181595202752e+00 -2.892125669211642602e+00 -2.670075629696607056e+00 -1.374830120328545346e+00 -2.069703891339000013e+00
-2.148705963109671657e+00 -3.067207417758127885e+00 -3.833294441548401377e+00 -3.794386725005536753e+00 -2.227025764648818740e+00 -1.174485500308759756e+00 -3.341390670192243117e+00 -1.348699665905867207e+00 -2.011160677712127587e+00 -1.238637115495517360e+00
-3.149145103271987267e+00 -3.196541505784359583e+00 -1.406316809823474845e+00 -3.549538505222982643e+00 -3.169000011191148047e+00 -3.343018613585249987e+00 -2.139328236124681926e+00 -3.755937628184407018e+00 -3.411699756981425580e+00 -3.620512016364914931e+00
-2.175206186174150513e+00 -2.389232283753666586e+00 -3.361690116302557652e+00 -1.827742452788566396e+00 -3.230837800635634860e+00 -1.855389303810259349e+00 -2.921131620439377130e+00 -1.683550258877565264e+00 -1.825083031768670372e+00 -2.926177295531372291e+00
-1.147999158536855857e+00 -2.972994772124556651e+00 -1.663233179269482553e+00 -1.504178495412748839e+00 -2.423156679230632271e+00 -4.631605429435102783e-01 -3.099577002903042278e+00 -2.753664676380128018e+00 -2.999349347821703482e+00 -1.188118519366335946e+00
-3.612435433096374382e+00 -3.886176562209801566e-01 -1.966870450433730655e+00 -1.605107050972332194e+00 -2.523106938115773801e+00 -3.631374334893592515e+00 -3.168614436253789357e+00 -6.653182978888091403e-01 -2.031628832842375942e+00 -2.263396839431570218e+00
-3.484871045046901816e+00 -3.309243035102045649e+00 -3.938962066430482967e+00 -1.171543169756966929e+00 -3.677769492613753410e+00 -3.242877738330419035e+00 -2.369877543303756884e+00 -3.258708360891041877e+00 -2.958014421274879346e+00 -1.065112494212824501e+00
-3.721661065048243788e+00 -1.280653585819881146e-01 -3.373023592141715543e+00 -2.926418225090617664e+00 -2.635799331333277262e+00 -3.175885432193664037e+00 -3.203555592441118982e+00 -3.520631947776393211e+00 -3.297393238672157612e+00 -4.080470280694280305e+00
-3.169993998249011291e+00 -3.484667393969725246e+00 -1.793291573408551054e+00 -2.682999452843987331e+00 -2.554556267608876219e+00 -4.202745832412476013e+00 -4.179476212321318052e+00 -2.937011734216861125e+00 -2.689942821390012728e+00 -2.052638943513708458e+00
-3.528788096161869614e+00 -3.996462052472850246e+00 -4.259023830237835817e+00 -2.111454365838899339e+00 -2.066527498954285225e+00 -2.660515421931710645e+00 -4.561806619914682948e+00 -3.137640271135119452e+00 -2.883711257796277128e+00 -2.797230360195530618e+00
-2.883376946511636341e+00 -3.720373990206189863e+00 -2.061886780242467854e+00 -3.241315471396479353e+00 -3.044924920064835838e+00 -2.870808086874670817e+00 -2.769534094600575536e+00 -2.770632492215646003e+00 -2.196518470469967621e+00 -2.055635130164684465e+00
-2.712802990445335904e+00 -2.025848806214491482e+00 -3.710291563450949237e+00 -2.396317590286753951e+00 -3.134449837489222013e+00 -1.829009998296754258e+00 -3.551323810783812096e+00 -1.819884174091616069e+00 -2.627082265572616482e+00 -2.556115453041917007e+00
-2.722760686176152745e-01 -3.751740102313067649e+00 -9.352440321077920560e-01 -1.357309451246569321e+00 -2.235541133100455102e+00 -3.213549517148793111e+00 -4.727237551033755536e-02 -1.802865701708905366e+00 -2.044432618540088509e+00 -5.982145187512453166e-01
-4.913117085069913514e-01 -1.666810718282511150e+00 -1.349194766884409091e+00 -1.432539106564394205e+00 6.046832667280533924e-01 1.347627477154110798e-01 -2.279725626522606519e-01 -2.866921027301513880e-01 1.289345438746595240e+00 -1.253432750660583128e+00
-8.761067603197112419e-01 1.418568589453979567e-01 1.550241437478448558e+00 -1.068553772857861350e+00 -7.279983959210361011e-01 -1.117447553311369246e-01 -1.461840114863563189e-01 -1.402039092843262447e+00 8.763043511317949452e-01 1.124779944121663267e+00
3.313912350635462856e-01 -9.930332312660556937e-01 -1.698059894051194396e+00 2.434663663519486265e-01 8.899109878202644541e-01 1.833984284675178877e-01 -5.812529204990262571e-02 -8.363236691092292840e-01 -9.856172418337939556e-01 -4.829633512222574615e-02
7.176844158149686681e-01 -1.545856871668084498e+00 1.570227052180283911e+00 5.675533136363150044e-01 1.347288327612413239e+00 -1.328158508486491751e+00 -1.367839032625996154e+00 -1.939535361928280965e-01 5.465483724382053099e-01 1.137089148931826221e+00
6.332995160472005836e-01 -2.426812768177820934e-01 -1.026396172822445774e+00 1.230000562000826969e+00 -9.775233405264563968e-01 1.644281919509529288e+00 -2.843942627276528357e-01 1.584777160197072154e+00 6.775146120363449986e-01 -2.982910223944393868e-01
-5.193963718261266349e-01 -3.409078773460798018e-01 4.283166923752375066e-01 7.715649621771673849e-02 -5.938114080687051377e-01 -1.656314103176322328e-01 7.857702971914980183e-02 -2.128734094414812095e+00 4.581681147886986771e-01 -9.797212247168067822e-01
-1.153332403205745038e+00 -1.687344347110710352e+00 -1.793892497867890290e+00 -1.355447503112289231e+00 -7.090209576304904449e-01 1.953259137526568212e+00 -5.258796758952039019e-01 1.777501062680313382e-01 4.004813865063286960e-01 1.310651862158487280e-01
-7.744456975197794302e-02 -1.197975470292796274e+00 1.449005915961146140e+00 1.772534406671862461e+00 -1.707464593317909562e+00 -1.078343937682518350e+00 -2.800104107476501514e-01 -8.480806964517239033e-01 4.974470404246927324e-01 -7.542571381843300449e-01
2.165054768927928475e+00 1.185529707974482427e+00 1.781548119301579192e-01 9.377000943680043887e-01 9.704482308831512416e-01 -6.266220040612776598e-01 -8.222301888754771637e-01 3.040206210233392103e-01 8.504831422443230871e-01 9.822020107321451088e-02
-1.577046716532302328e+00 -8.057353675510545710e-01 -7.662586672312586555e-02 -1.599467249826828363e-01 1.705082187086355061e+00 -1.441537771406312451e+00 4.889400282424039568e-01 1.723565729708789407e+00 2.258924570994598202e+00 -4.537308022902378779e-01
2.348078655143235882e-01 4.934081802031661801e-01 -2.182244513747834957e-01 -3.722450049258504423e-01 1.690871065146353491e-01 -2.508305786282293948e+00 6.254118645062209936e-01 3.372933204867409884e-01 -3.794140448376631669e-01 1.960523746467948802e+00
-1.374447093464263192e+00 -7.289923348187198338e-01 9.982331681361757969e-01 -1.834434195902110432e+00 -8.108318604123421203e-01 -6.268987599556219426e-01 3.078702774653190866e-01 6.774572957474603915e-04 -1.700671611421760154e+00 -7.958346460016506585e-01
-1.664482263616682500e+00 -9.862088164284317227e-01 -1.024708791006292641e+00 -9.055612493000813057e-01 -2.425365531495798699e+00 7.326864447469970572e-03 -6.366785663810219376e-01 4.932982209074462943e-02 -6.634902834651462689e-01 5.869248482120645871e-01
-7.367072838175898752e-01 -5.036015046121420369e-01 -1.103050624143937508e+00 -1.856090048502036849e+00 8.280011935202878925e-01 -6.138036583541595093e-01 -5.553772249620498869e-01 -3.292327177109269698e+00 -2.954743390642057932e+00 -5.740522685623230537e-01
-1.689845120322442940e+00 -3.018595620425946091e+00 -2.011939999728481698e+00 -9.813954477420876454e-01 -7.969526012383000291e-01 -3.220041944506158771e+00 -1.818977969946347972e+00 -3.489162613386349143e+00 -2.541179676848660751e+00 -1.970896731151305703e+00
-3.288146367250988966e+00 -4.190337216525251485e+00 -2.670885068597946166e+00 -3.637383810117680305e+00 -4.323437091323253156e+00 -1.031823209837375410e+00 -1.042053605806121386e+00 -3.185782472825296363e+00 -2.491259705739573782e+00 -2.392533790558664553e+00
-1.440640876667575121e+00 -1.942924611452348627e+00 -3.021563730212600607e+00 -1.812168601709908566e+00 -1.440520026739018355e+00 -2.905467056570672835e+00 -2.713656586401330451e+00 -2.485987096656435469e+00 -3.803761602619325721e+00 -2.956740243512579802e+00
-2.541589339043903273e+00 -3.768704227594822598e+00 -3.997974751933583093e+00 -3.401178791416511249e+00 -2.639379853287238120e+00 -2.170109255988385666e+00 -2.148737941531278839e+00 -4.994201936277253395e+00 -1.973635768651866629e+00 -2.043085619311286738e+00
-2.735003526997742185e+00 -4.601000067159107587e+00 -4.035412612808415567e+00 -2.322387677171094289e+00 -3.342159777257316833e+00 -2.356516126532928190e+00 -1.161126380180649287e+00 -2.560366887053116880e+00 -2.824001425918702513e+00 -4.116156912556705905e+00
-3.267363458454729752e+00 -1.907904579694442049e+00 -2.759528936886927131e+00 -2.667364293462081370e+00 -2.081261801108395204e+00 -1.078319698627025591e+00 -1.656666318880238187e+00 -3.168639385865669400e+00 -1.625047847833409165e+00 -2.363813370464501240e+00
-2.599892828633375785e+00 -1.976224526557349259e+00 -2.866157730125037606e+00 -2.318193692076575552e+00 -3.396728293326976456e+00 -4.410860152871041606e+00 -2.722593102084337691e+00 -3.188913140742334118e+00 -1.985116467922493522e+00 -2.884509477750035966e+00
-3.004372955410368640e+00 -2.815626579141499164e+00 -1.774819968376112556e+00 -5.001445053835920973e+00 -2.519399311844150446e+00 -3.033740505266239840e+00 -4.213447542628312448e+00 -3.082363691302300257e+00 -1.646220810772106136e+00 -4.052582357274262748e+00
-3.907642084201357058e+00 -5.365656597949991280e+00 -4.031522735943395830e+00 -2.391577348022206451e+00 -3.452962949075552235e+00 -5.244170948008488153e+00 -4.261351801565055553e+00 -1.824801552583416697e+00 -5.200151581296345249e+00 -3.418055496174178920e+00
-2.713493576742377122e+00 -2.144825422645550095e+00 -3.334286411307611164e+00 -4.437266086848586255e+00 -1.552714238722582518e+00 -2.716638720506860061e+00 -2.810056335722642018e+00 -3.764025168482574291e+00 -3.631914966579328219e+00 -3.046950566384183823e+00
-2.780566854336663063e+00 -2.351079894827271310e+00 -2.392769026862602288e+00 -3.849761088417145150e+00 -1.694772970830038084e+00 -4.204173433320767650e+00 -3.000595237347950306e+00 -1.622322936964623930e+00 -4.253409579295632348e+00 -2.739189015382772485e+00
-2.546046242892405775e+00 -3.902454824730586136e+00 -2.338723986299525048e+00 -9.490148935744018299e-01 -4.061634595043846829e+00 -4.084252639208628466e+00 -3.008442479473385500e+00 -2.586861248372705813e+00 -2.433256926751948601e+00 -3.062135455007308771e+00
-1.374109855877366115e+00 -2.200453974088060427e+00 -3.373293854736809205e+00 -1.636007302000311192e+00 -1.047662884980955278e+00 -2.644629136632742128e+00 -2.350282013440506912e+00 -5.196440932390601342e-01 -1.224345891987621560e+00 -2.104699291365834668e-01
-1.307203950502192846e+00 3.456029683170776523e-01 -1.714376488898557538e+00 -1.429066127831450039e+00 -2.260520179733800816e+00 -9.686020791430423049e-01 -1.758886983512168767e+00 -1.765516377562687422e+00 -1.659655147109092121e+00 -1.646232833547141228e+00
2.046943051865124374e+00 7.810358248317305074e-01 2.630441205518643799e-01 -1.687101029864810586e+00 -3.129923535686360281e-01 -1.660661124094118035e+00 -1.104491330163081875e+00 -1.714519184819026210e+00 5.483018015665588329e-01 -1.064637590701767111e+00
1.667210675957985666e+00 3.267794881222723102e-01 1.393229830868987662e+00 -1.487749129978421569e+00 1.071148317056666466e+00 6.741138494463038144e-01 -9.062776780777442864e-01 3.312962947990577001e-01 1.138074916130285275e-01 -9.037166951139544713e-01
-5.226969653562133500e-01 -7.946079698558565774e-01 1.875404284035326441e+00 -3.202699967094245655e-03 6.921118967109946007e-01 -1.171879732205855618e+00 -7.910490002504689810e-01 5.214605227333396487e-01 -1.336862054304344793e+00 -8.880206736895533970e-01
8.324642021515483992e-02 1.003123659304395038e-01 -1.804433615657715373e-01 3.947752287000067528e-01 6.755139284097884111e-01 6.807332826927756653e-01 -9.896425815409969351e-01 -3.586105972006813358e-01 1.173468370500184710e+00 6.799467773638036006e-01
-1.372859719875798801e+00 3.108870430579820376e-01 -1.978122389024594696e+00 4.693490204756680523e-02 1.810500691268220441e+00 -9.478914914034797246e-01 -8.344020515441037400e-01 7.640297575616650239e-01 -1.562146159920297483e+00 -6.877578386330235327e-01
5.964411375817526562e-01 -6.342858476894031039e-01 -2.359699872109716212e-01 7.441857103150345543e-01 4.215460835365612557e-01 2.668183962954018829e-01 -3.391222792700387401e-01 3.700611152689553540e-01 -1.237326800997566173e-01 4.578056099257847289e-01
-4.969320251179782377e-01 -1.825689743795411157e-01 -9.899577925520138821e-01 -3.500761000623590219e-02 -8.110008636288448258e-01 -1.114046450161993329e+00 2.586611478553881294e-01 2.127397758576603237e-01 7.828737349485724861e-01 -4.311255695750990657e-01
4.080527208022191599e-01 5.504928320094737426e-01 4.445551773051809596e-01 -8.300719811410270932e-01 1.459529800587712756e-01 3.579680975523437669e-01 7.155546921240804603e-03 -2.071799389643932621e+00 1.595056114561970995e-01 2.209382388657638696e+00
-3.600395319063097177e-01 -7.287313143907787616e-01 3.714941624333260584e-01 2.520069405255742079e-01 9.620039317430426618e-01 -1.269726344595601519e+00 7.168906580122944572e-01 7.380193461815531819e-01 -1.449307087142534256e-01 3.149325778298094347e-01
1.028899513757034478e+00 8.685911441455054227e-01 -1.150193368112393255e+00 7.477022185177351066e-01 -3.352082650182449108e-01 6.275164995255401446e-02 5.671006354620403145e-02 -2.724180381424958983e-02 1.140166502236287016e+00 -8.163288228876097730e-02
-1.221969601061004163e+00 -4.930672569199272548e-01 -3.198491639915052032e-01 1.013773939064734009e+00 3.946200293339258702e-01 -8.545193962034635105e-01 2.364691851713824899e+00 3.449574515496272586e-01 1.031384137278636093e+00 -1.232003836656421075e-01
-1.960361428161654651e-01 4.814107343192417510e-01 1.428440863917472201e-02 3.190012979846699737e-01 5.397939236825071152e-01 -7.010593970235551309e-01 -1.129250153048712457e+00 -2.523789743614496262e-01 2.864262247522040838e-01 -2.204086730079383993e-01
-2.093848931521857457e-02 4.690207420558836215e-01 -2.498773848112249230e+00 -1.752461322636295948e+00 -4.282599195975224093e-01 -5.195678199274504916e-01 -1.504427166372870550e+00 -2.944726262131303618e-01 -8.053894918330601893e-01 -3.925800138620722524e-01
-2.545764801512315767e+00 -2.921199454074052682e+00 -1.487006300630203004e+00 -3.499662840834647515e+00 3.527350889232819253e-01 -1.340935565450387834e+00 1.882682247486433980e+00 1.897822346731918020e-01 -1.794706807334149445e+00 -1.375568161848172322e+00
-1.195525136708381009e+00 -6.278531402020546270e-01 -3.464072871623292027e+00 -4.409216020418847748e+00 -1.899385851011291315e+00 -1.640546209800231692e+00 -1.524196624293147506e+00 -2.054135034650902636e+00 -3.103475721772840146e+00 -3.576640292441136904e+00
-2.701843443356230612e+00 -3.744829828741780275e+00 -4.241818448619938842e+00 -2.901820150475578952e+00 -1.475337559028620182e+00 -2.915353277071875304e+00 -2.713606358570723298e+00 -3.643799109549616055e+00 -3.280201555451063289e+00 -2.784334377446168407e+00
-3.701442525111631632e+00 -2.936513442350270342e+00 -2.766858517245541993e+00 -2.755532185399325762e+00 -2.872077202863153378e+00 -1.718971601880394440e+00 -4.505105281621110791e+00 -3.355217537254233218e+00 -2.670277922151389483e+00 -4.033677151077359468e+00
-3.606304835316124890e+00 -3.075178693290546494e+00 -2.465318322711337107e+00 -2.722327128789057138e+00 -2.436590920334566590e+00 -3.055399572398032948e+00 -2.350318824289082009e+00 -2.116137811558147064e+00 -2.864483445198177769e+00 -2.535378071742726558e+00
-3.027350666333222584e+00 -2.797587075714764726e+00 -3.851363099020862268e+00 -1.738182587457220762e+00 -2.304466406669010148e+00 -2.294645576487777117e+00 -3.853830105733875300e+00 -3.143187781460919705e+00 -1.185535585561279026e+00 -3.116814895899561400e+00
-3.117184230483096563e+00 -3.009111517066464181e+00 -3.952983671645812880e+00 -3.248985076724009602e+00 -4.193543348290121209e+00 -2.512129492369263861e+00 -5.213158584481301538e+00 -5.437016041937892119e+00 -3.716456271286073587e+00 -2.597870506975235472e+00
-4.566035621346200557e+00 -2.634078057804235318e+00 -4.272592295253516248e+00 -3.938401254011486774e+00 -3.009664855574706532e+00 -3.936554139451857282e+00 -3.624691416208228656e+00 -4.853857608681172664e+00 -2.611404902472429068e+00 -1.979029521694376736e+00
-4.217303472214745774e+00 -3.514948934799063451e+00 -3.693995503364086552e+00 -3.591866419515210573e+00 -3.861147753490811407e+00 -4.413445570381144378e+00 -4.438050572219970569e+00 -3.788138080972560662e+00 -4.643315168284462224e+00 -4.132723504051803332e+00
-6.182959488372413048e+00 -5.415574728427748674e+00 -5.054734686150466949e+00 -3.554967397465577328e+00 -5.087174353817453643e+00 -3.654083157868651011e+00 -4.461717559646094955e+00 -5.451638638262740422e+00 -3.512323711634926848e+00 -3.044213406752237727e+00
-4.963105849216709942e+00 -4.170987811411598578e+00 -5.193532216868144147e+00 -3.508849628661662390e+00 -5.399493492066664402e+00 -5.369157663287286830e+00 -4.135507418023443016e+00 -3.561880558879197967e+00 -4.588271005329045416e+00 -4.477395993629321502e+00
-3.167174566786270518e+00 -3.332504971189469423e+00 -3.857361119371753411e+00 -3.028630006936445351e+00 -3.556487693426505281e+00 -2.956348925942495764e+00 -4.107129675625642129e+00 -2.699458077678946744e+00 -2.129053126705736432e+00 -1.967699086044081280e+00
-2.549900944199738007e+00 -2.775943521933615710e+00 -2.045005290660274255e+00 -3.927378251856593838e+00 -3.273587508943584634e+00 -3.615980773969103446e+00 -1.335490914275031971e+00 -2.221653684721211164e+00 -3.369113141206677486e+00 -1.892697498333142159e+00
-2.314445061712576912e+00 -2.181094362004034615e+00 -9.017604581804860020e-01 -3.129488364794096977e+00 -3.431267817882928117e-01 -1.140602264057556825e+00 -5.772193051210151582e-01 -1.982083043033068259e+00 -1.632600260864617958e+00 -1.868055811240365571e+00
-1.458122636621651091e+00 -4.792816789562044932e-01 -3.654715033198785434e-01 -2.329957461583012979e+00 -9.368141878417765023e-01 -9.954509779522339175e-01 -1.955059571257392381e+00 -4.294554568258099891e-01 -1.860795509309897566e+00 -7.513484145637405742e-01
-4.493389213790674463e-01 -1.393375001121605949e+00 -1.763864214787376872e+00 -8.220898402823387796e-01 -5.203861678484368314e-01 -9.984037715073733610e-01 -1.765530814611642463e-01 8.160546281415217429e-01 -4.756625258376057097e-01 4.626311229738373498e-01
-1.015959720394125076e+00 -2.107994098781338366e-01 -2.119785079530537519e+00 -1.500676282383982985e+00 -9.272208061658049338e-01 7.617906041341825363e-01 7.593067232818925261e-01 -3.982566279153396671e-01 -1.821369969991905924e+00 -6.996921565596779802e-01
1.903718331099654992e-01 3.175975446319171530e-02 -2.178916082947895294e+00 -8.963675709564526972e-01 -2.405235270153918414e-01 2.151347840135191813e-01 -2.065538195478930916e+00 -6.493741550171092669e-01 1.279392322430510098e-02 4.848289456729317770e-01
