4.967141530112326731e-01
-1.382643011711846559e-01
6.476885381006924902e-01
1.523029856408025351e+00
-2.341533747233359719e-01
-2.341369569491805469e-01
1.579212815507391454e+00
7.674347291529087789e-01
-4.694743859349521098e-01
5.425600435859646575e-01
-4.634176928124622563e-01
-4.657297535702568658e-01
2.419622715660341150e-01
-1.913280244657797891e+00
-1.724917832513032767e+00
-5.622875292409726944e-01
-1.012831120334423796e+00
3.142473325952738761e-01
-9.080240755212108938e-01
-1.412303701335291484e+00
1.465648768921554046e+00
-2.257763004865356582e-01
6.752820468792383735e-02
-1.424748186213456780e+00
-5.443827245251826596e-01
1.109225897098660846e-01
-1.150993577422302794e+00
3.756980183456719580e-01
-6.006386899188049799e-01
-2.916937497932767798e-01
-6.017066122293969199e-01
1.852278184508937775e+00
-1.349722473793392094e-02
-1.057710928955900354e+00
8.225449121031890298e-01
-1.220843649971022238e+00
2.088635950047554035e-01
-1.959670123879775572e+00
-1.328186048898430505e+00
1.968612358691235187e-01
7.384665799954104326e-01
1.713682811899704950e-01
-1.093972430588605882e-01
-2.742252634266255096e-01
-1.475942010954591987e+00
-7.224148323531409677e-01
-4.676122721236189439e-01
1.056411202570836982e+00
3.436182895684614103e-01
-1.763040155362733952e+00
3.240839693947950018e-01
-3.850822804163165358e-01
-6.769220003059587265e-01
6.116762888408678878e-01
1.030999522495950949e+00
9.312801191161985681e-01
-8.392175232226385395e-01
-3.092123758512145826e-01
3.312634314035639571e-01
9.755451271223591903e-01
-4.791742378452899520e-01
-1.856589766638171157e-01
-1.106334974006028204e+00
-1.170512508126184015e+00
8.281097137166363309e-01
1.405158190680549035e+00
1.521347776861334440e-02
1.125329787822579197e+00
5.237732746877787893e-01
-5.434795786971930998e-01
3.520499385642762435e-01
1.551341351534518687e+00
8.481777440673449187e-02
1.868920149260139940e+00
-2.193294979661450927e+00
1.110910455795703911e+00
2.230333136200304545e-01
-2.330149211523719899e-01
1.136878466102199808e-01
-1.996636578836863407e+00
-2.196263997133665880e-01
3.571125715117464128e-01
1.477894044741516089e+00
-5.182702182736473873e-01
-8.084936028931876129e-01
-5.017570435845365440e-01
9.154021177020741362e-01
3.287511096596844595e-01
-5.297602037670388064e-01
5.138961685993534978e-01
1.002982236795232351e-01
9.968461972959639095e-01
-6.740512682683230672e-01
-2.680720175437366626e-01
-2.150159611377032431e-01
-1.241093019428872513e+00
4.915757237957953385e-01
3.190978074102731044e-01
1.320645806873257111e-01
1.430944570702227803e-01
-7.363615705059650685e-01
2.813622241634519683e-01
2.248003297823466806e-01
-3.848813861657491842e-01
-1.001780189152932238e-02
4.526745910247738647e-01
1.904288705136984783e+00
1.921577746431450129e-01
2.782976133508138217e-01
-7.444591576616721440e-02
-1.918771215299041488e+00
-2.651387544921687822e-02
6.023020994102643716e-02
2.463242112485286128e+00
-1.910484456611991344e-01
3.015852868192141489e-01
-3.321923542702579640e-02
-1.156221068637784288e+00
1.141188577159718331e+00
7.858259805939141751e-01
8.166333098648895783e-01
-8.351667429831610701e-01
1.433090864299735534e+00
-1.456293754785118022e+00
2.419525965551433677e-01
1.655326527473838460e+00
-1.004623659593806950e+00
-3.083442266291583911e-01
3.201632477277865929e-01
-4.813617189159744014e-02
-8.864545094216715881e-01
5.595129013264314999e-01
-7.952357866518328100e-01
5.086661080173369154e-01
-8.039923598228282398e-01
1.546491306538161359e+00
-8.320719530368675398e-01
-3.202912565606397255e-01
8.135172173696697540e-01
-1.230864316433955219e+00
2.274599346041294157e-01
1.307142754282428099e+00
-1.606862509592437815e+00
1.850757326228365529e-01
2.636340870646100565e-01
8.161400736073957107e-01
-1.247541386687934573e+00
-1.461381568381182383e+00
2.425539084415644642e-01
-1.365086021345321421e-02
-7.746940903435897696e-02
1.397668342771312688e-01
-7.731804537735698091e-01
2.057553224359792432e-01
4.224173352257973302e-01
-7.909306841036466418e-01
1.492960658171167632e+00
1.807614770188113174e-01
-5.692897632402718067e-01
1.022230511255870500e+00
-5.125505821923388439e-01
1.141934468753003751e+00
1.163638064095245728e+00
-1.037257080925158226e+00
7.744701804230317288e-01
4.255595547489381403e-01
8.174898239341024109e-01
1.896792982653947357e+00
-2.453881160028704989e-01
-7.537361643574895798e-01
-8.816394002934069274e-01
-8.000704716964639474e-01
-7.445362925982926261e-02
2.709438328416545194e-01
1.048589970266620847e-01
3.862156876058381871e-01
-3.042026101489142542e-01
1.153223969011680783e+00
-5.388349959737993577e-01
1.892584735691369868e+00
2.416719884333594914e-01
-7.150458023500572136e-01
-9.606289640738130409e-01
3.169889761852687227e-01
-7.642666852197113059e-01
2.831543063767883450e-01
2.548659331107158699e-01
-1.222059914200531866e-01
-1.191132293752580201e-01
-7.577517863815091959e-01
-4.732852148193144592e-01
3.843487218411018591e-01
-6.105304372087458353e-02
-1.225243613940053322e+00
1.497920547248804690e-01
3.853173797288367841e-01
-8.838574362011329955e-01
1.628226895453989964e-01
1.135630909487847923e-01
-1.099851088574220981e+00
3.051593399953526076e-01
3.795778628256658571e-01
7.950309872169266656e-01
7.606220916055579373e-01
-1.211486500734734406e+00
-7.655429675804418244e-01
-2.707533991829495501e-01
-4.646684079360256514e-01
-2.315895891997230005e-01
2.335453499149660050e+00
-1.088563229505288554e-01
3.271895171247240497e-01
2.494287513735582162e-01
3.464766618602881931e-01
-7.370738962469297606e-01
3.038562710693387681e-01
-2.976499483438090343e-01
5.815292416864391578e-01
-2.344948321406252756e-01
-1.948242697404761192e-01
2.087748468896495790e+00
-1.847215352604800742e+00
7.207170451608010397e-01
-1.612715871189651651e+00
-4.719318657894334690e-01
1.118909880891077568e+00
1.600815447491663601e-01
-9.186423308403963706e-01
-7.579075836780184705e-01
6.233301478313105770e-01
-9.329197154589956575e-01
6.660273251402934469e-02
5.876848326574569681e-01
-2.204434442431676688e-01
1.709212998055798183e+00
7.684455531998057864e-01
-1.261387300798688216e+00
3.861918598363682231e-01
-4.893143626077391395e-01
7.089218831271476562e-01
-4.319652175605804834e-01
-1.037551220556356263e-01
3.969728160484570570e-03
5.696814021608084255e-01
-8.939955655738597295e-01
2.671383938703335015e-01
-1.235303666589342292e-01
-7.445520614039519147e-01
1.624078574638444961e+00
5.168994148484469253e-01
-1.199021961915349488e+00
9.178619470547760839e-01
2.122156197012633250e+00
1.044543087054424113e+00
-1.401112645601371387e+00
-3.284100235371448795e-01
1.214474289297152954e+00
-7.402094526098000893e-01
2.999040055997119203e-01
6.664320944965698157e-01
-3.038860939436165420e-01
6.108389034092882586e-01
-2.080428044863487536e+00
4.055020781806656927e-01
7.984144627126137372e-01
-1.024862841810956660e+00
1.409121778969189220e+00
-9.568259438126323069e-01
-1.683291517274607407e-01
-2.548318950540042760e-01
4.363424100207392020e-01
-1.664546549219258820e+00
1.182590046393263039e+00
1.247711631424514300e-01
-9.013637625547942234e-01
3.321440149523306462e-01
2.620347431651829373e-01
-4.793295555084942650e-01
6.595251463395826463e-02
-3.853135968617601992e-01
1.135173452512480419e-01
6.624519862490907407e-01
1.626721942767088924e+00
-1.253822606935914186e+00
2.026417544678084770e+00
-1.889739819904264095e+00
-2.381216671422796416e-01
4.542774994609353190e-01
4.683875000277236134e-01
-1.834833458977340806e-02
9.032459515792594651e-01
2.619429832189320573e-01
-2.132238208829005111e-01
5.999680608432796936e-01
2.828362991930887319e-02
-7.407319373874204915e-01
6.542818101411943532e-01
-1.708203794799296321e-02
-3.225808453944802468e-03
8.963152165823493056e-02
-1.023318668806004084e+00
-6.547665346045382639e-01
6.219196481335557136e-01
5.247921670768193048e-01
-1.104691471575375804e-02
1.580296419296718380e-01
1.284179485367764828e+00
-5.915713888358299366e-01
5.470973811700379219e-01
-1.841827073965716099e-01
-1.374933794946018861e-01
1.129411725776992226e+00
7.917144535636569946e-01
8.893093850870188444e-01
1.098379410560166081e+00
-1.246465377338607933e-01
7.453446886358990886e-01
1.540435158415824624e-01
7.642651917911901238e-01
4.401105855886453533e-01
7.006684024530641652e-01
4.238680924938775796e-01
-1.234226969048519917e+00
1.090937998648534801e+00
-1.462297107005984254e+00
-1.145585783853907413e+00
6.829293546988152164e-01
7.144000971052683058e-01
3.719105071118787298e-01
2.202032928718572202e-01
-3.793543808190856792e-01
-1.014650766700644136e+00
6.228714226602134751e-02
-6.416252916394242778e-01
9.939902190568357110e-01
-1.470573815021386510e-01
-8.254971967925115450e-01
-2.858559704220865472e-01
5.129438200355251887e-01
-5.272354105329620788e-01
-7.195357409102147717e-01
2.686860554344394081e-01
2.164948518586393492e-02
-5.890077446725117127e-01
-5.093505763842014478e-01
1.326694286734649564e-01
-1.190068699425933296e+00
-4.666808211945394080e-01
1.814694718336387902e-01
-4.985234568575171166e-02
-4.929191638813620324e-01
3.825186028843389763e-01
9.716781809686414473e-01
4.134568497928326480e-01
3.673921152267771162e-01
-2.942812319366525653e-01
4.537312314162905702e-01
-4.354009103000280878e-01
9.561009989939889264e-02
-9.855164398799827197e-01
3.881501310337633348e-01
1.491862692185952133e+00
-1.638582890553405003e-01
4.017117220989414594e-01
6.901439917111125144e-01
-3.968600132057435448e-01
2.435075073020691039e-01
6.644360666469621701e-02
1.626100982900976766e-01
-7.523388468959730790e-01
-2.620908473302618336e-01
1.811178888155584032e-01
1.001434234925551614e+00
3.631382344356046121e-01
1.390231899626072742e+00
-4.340492103417952219e-01
1.259978190748018756e+00
-2.846051994727435419e-01
1.189087015637577460e+00
-5.770034963507907344e-01
8.652553584702846190e-02
8.884454422669900431e-02
-1.411077813656612223e+00
2.761066175872008976e-01
-1.650797264876178450e-01
-2.472529348378033065e-02
1.360305115914338947e-01
1.697164686463630057e+00
7.877505580259851481e-01
-6.591446879534201830e-01
-9.206487117201341830e-01
4.927778887664835406e-01
-1.320233207020642174e+00
1.831458765854353743e+00
1.175846771203452157e+00
-3.904217017268636902e-01
-1.557236912932130624e+00
1.229282349422742504e+00
-2.584404419239323403e-01
7.890354173757604395e-01
-1.737787412856899305e+00
-2.545810817602662257e-01
-1.356464775138689349e-01
4.066992117941961027e-01
-7.255393541610065389e-02
7.212209541793013212e-02
-9.224085573015571304e-01
5.257659971080484995e-01
3.936968567007576580e-01
9.604858568043991296e-01
1.298867469963712828e+00
-1.923890645680031153e-01
-1.253231616254414149e+00
1.100039709728382276e+00
4.460675347338129426e-01
-6.670438576298497457e-01
1.535964018384782470e+00
9.555230012175430776e-02
1.177582973664868415e+00
6.815638566037832136e-02
2.060747924881987103e+00
1.755340842443204430e+00
-2.489641484790734993e-01
1.004878546470583389e+00
7.897062687225578914e-01
1.359758368811555096e+00
-7.996329470653169569e-01
3.207908774071240310e-01
8.662168423909339943e-01
-6.259088654008723163e-01
2.566561969614151173e-01
-6.009509101887804405e-01
9.924013622271186941e-02
-1.750261559728132077e-01
8.257790741782315980e-01
-1.923203972771497516e-01
1.156382212815783239e+00
-6.132977302333616487e-01
-9.657030830122633747e-01
1.987468473402953795e-01
5.363909272784004312e-01
3.592324575715855756e-02
-1.680998352029616560e+00
2.740540035699395305e-01
-1.172757396912070149e+00
6.617292973455203287e-01
3.617400670875609014e-01
-9.406966822929380134e-01
-5.138669173366935405e-01
-1.059213521888951570e+00
-6.024525471622121237e-02
9.849705322168538224e-01
-8.334172094135733344e-01
6.120315105385716326e-01
-1.598378328590176201e-01
-6.863612818751347877e-01
-4.768372202024219464e-02
-6.042831547593461444e-02
6.145897198619032498e-01
-5.178263322304666599e-02
1.475619594374845578e+00
-9.809186273484380436e-01
-8.436119813278344370e-01
-2.103349884220111765e-01
-1.070765755882775901e-02
1.607966791157373621e-01
9.898161924641411813e-02
1.459830581650251591e-01
-4.200767714216285253e-01
-1.008949775032844248e-01
4.944013375682523859e-01
-1.677839010666876574e+00
-1.393647268089977631e+00
1.295375412154725181e+00
1.617288102226915658e+00
-2.505336821599463693e-01
5.765569630557664249e-01
3.112501545435361061e-01
3.087114655942470698e+00
1.149453022339556707e+00
-1.485804125325397400e-02
-7.334063274779292207e-01
-1.288585303234605517e+00
2.508904347851232952e-01
-3.075522935620391696e-01
-2.942266865810802545e-01
3.799532787215215146e-01
-4.780493009652051484e-01
1.060533012153279220e+00
4.175783768322588463e-01
-1.623876521556297248e-01
1.004790877945262340e+00
3.723818332498206596e-01
-6.166428995535945257e-01
6.736738702748442664e-01
-1.557450327761904785e-01
-9.065121095975862131e-01
5.091058828692033300e-01
-1.132788081443251299e-01
-9.554590814389607445e-01
9.101250556423933213e-01
1.773020511983993686e+00
-1.428174742206509640e+00
5.614664513632520171e-01
-6.506425691218269414e-01
-4.871253837646960516e-01
-5.943782224280773629e-01
-8.274661224315873476e-01
1.242616627205603147e-01
-7.266075063478935059e-01
4.516730420934199630e-01
-2.036717926729036954e-02
1.340215645039890269e-01
-1.646752880391467652e-02
-1.254295686567138968e-01
2.204803805443421583e-01
2.910121017586727588e-01
-6.963574533033344283e-01
-9.986641537289288328e-02
8.548518522427391020e-02
-1.186075936332694036e+00
7.467342277047028798e-01
-7.598711141644539646e-01
2.609015449226612104e-01
-5.323897713595546755e-01
-1.229135249854627743e+00
-1.309136394347369281e+00
-2.483347246982698167e-02
5.736945023586936115e-02
-1.028271578712874890e+00
6.217577840694982205e-01
-1.662147585999833588e+00
-6.607979864731657049e-02
-1.211016199762456669e+00
-6.586216207376818232e-01
1.040383949668944596e-01
-8.099579610457274814e-01
-1.869169404037691329e-01
1.294288051814377116e+00
-2.384447144323318390e-01
1.124535310462356552e+00
-5.924272810724330318e-01
4.863392589433747637e-01
5.839230971054231167e-01
-2.083076338414058704e+00
-1.949989497352793144e-01
4.229817523950969438e-01
-7.546829010777869606e-02
6.982084276902678077e-01
-7.261265571265270724e-01
6.597300393072072500e-02
-4.775617503133373076e-01
1.170257436349495972e+00
2.124293480195200146e-01
-4.482936071011823674e-04
-7.790883566645159242e-01
-7.723869248870368631e-01
-5.323797132500727169e-01
3.305199133901891573e-01
-4.210487648671480398e-01
2.897748568964129134e-01
2.075400798645438805e+00
8.608696289801954782e-01
-3.047772072362801010e-01
1.177845461701147123e+00
-3.171785686716759867e-01
-1.847464811086122705e+00
-3.267151214848237895e-01
-1.137971002920540542e+00
9.445316085793201144e-02
-3.101146190500351230e-01
8.976747992532213560e-01
2.747905971395742664e-01
3.531847174778263154e-02
6.094476747257342453e-01
-1.841581985660102339e+00
9.054680204458000203e-02
2.299652118929728928e-01
-1.160166993194570173e+00
1.144873833802731999e+00
2.929983660810409063e-01
-7.254487353295253627e-01
1.617809512149890050e-01
1.765374076212145482e+00
-8.096270399569062415e-02
1.741074861215694547e-01
-5.005186716423550841e-01
-8.498443694647918045e-01
8.303358165442455974e-01
-8.560838259088672242e-01
7.527661841202595849e-02
-5.027717035421473968e-01
3.643581492129888133e-01
-4.283469529305502371e-02
6.699811985296114658e-01
-3.316133903285509721e-01
7.095886843276864864e-02
-3.426192456917940832e-01
-2.570788629546171822e-01
-7.634603251813608382e-02
6.045619728749231925e-01
-7.161046272832336523e-01
5.457973807442442205e-01
1.046853909142858807e+00
-9.466957828765905358e-02
1.239703537381933396e+00
-2.475284997256172737e-01
-5.909597365222758469e-01
-1.478848240919944601e+00
1.246830741412882970e+00
2.947899119314035254e-01
-2.756719210006292053e-01
2.346025861269901425e-01
-1.147551506705162927e+00
2.445734130323671707e+00
1.292211819752275004e-01
1.093947946048928893e-01
7.257666238986919538e-01
4.865701406970666665e-01
2.192577973123501778e-01
-9.509797075860741966e-01
-3.141002882734474366e-01
8.015369613647380653e-01
2.056178203059564058e-01
1.025050873018136244e+00
-1.957433940399440075e-01
-6.931153392738212959e-01
-3.155603752451452415e-01
-9.064640841877351363e-02
7.649855773219536026e-01
-2.172744754010641710e+00
5.197253822465237594e-01
-7.080723588685515768e-01
-4.432555853266637591e-01
-1.856562296689876282e-02
-7.459975358389534517e-01
1.037906023107528553e+00
-1.240979704511782078e-01
-1.380670235566842763e+00
-1.299115250733768212e+00
-2.770829319999976725e-01
1.666084679235683819e+00
-2.595913513636047831e-01
-1.503142953118106195e+00
-2.457430640859443183e-01
-2.727235697476704801e-01
-2.695913843914808261e+00
-6.935372232326166009e-02
-3.763787673153506930e-01
3.540143388707367444e-02
6.963414331378190436e-01
-3.568398821202297677e-01
-1.001322577158658689e+00
-9.793237710398864371e-01
2.013350624412869383e+00
-5.940633480533029642e-01
-1.677123030089794908e-01
1.631833215532214609e-01
3.559491041167288650e-01
-2.393138993185195962e-01
-4.918681690448776789e-01
-3.292668135147529540e-01
7.688311177096555094e-01
3.432698986565964339e-02
-5.859241797323631040e-01
-6.128922802217803140e-02
-2.904055343481828366e-01
1.498503508631884085e+00
-2.619885837819326824e+00
1.087575251618456695e+00
1.246085192497629057e+00
-2.073390232408149458e+00
-3.426875940803487675e-01
-3.714408659957914582e-01
-1.407511694717821227e+00
-7.977042015842558120e-01
-1.125851950740654805e+00
1.518223361308798314e+00
4.510401480146198350e-01
8.381642811215762601e-01
6.364862095066903258e-01
-8.589490131380050908e-01
-5.779166521434012660e-01
5.173705579133363042e-01
-6.899660810276154743e-01
1.112029063916321947e+00
6.006599758342261869e-02
-1.884451030234628732e-01
8.537046371823506785e-01
5.983941132811337882e-01
3.909610578082473031e-02
1.561483880936922253e+00
-9.637906998890740651e-01
5.348845402739910160e-01
5.540153379321555160e-01
-3.198968066877158067e-01
3.220474685986596808e-01
-1.254442546020711813e+00
9.240270192069010013e-01
-1.849021364429890291e-01
-5.227230205190395163e-01
1.049009225836889270e+00
-7.043436905427592487e-01
-1.408398525966031434e+00
-1.548630653206624963e+00
6.090610087056871347e-01
-1.238082213127511100e+00
1.991214776374448769e+00
-1.646872375961898838e+00
1.866632008075228333e+00
1.160697657052623538e-01
1.295139787366292039e-01
2.644553766520221227e-01
1.013762053153812071e+00
7.443581955430761399e-02
8.759176166670449293e-01
-5.128853511721170877e-02
2.193658801177906514e-01
3.782717519963391464e-03
3.570232127444365466e-01
5.489534510206938167e-01
-1.634235343126157369e+00
-1.336119078116999814e+00
7.417073688358953865e-01
1.708654381279418599e-01
-1.839833363526791332e-01
1.843393306539315921e-02
3.475817053616710450e-01
-5.397596803093615003e-01
-7.783047254023126582e-01
1.958452550976815532e-01
-9.783727776150320521e-01
4.045252128355830146e-01
-1.722996653981533788e+00
1.029141573078052430e+00
6.102315090408337861e-01
4.806706025513174940e-01
8.009613246392894848e-01
1.313909648702987765e+00
1.055330945082778360e+00
-1.238500897363375985e+00
-4.532351228255426800e-01
-8.791370980081006370e-02
1.749655280179808481e-01
6.788945078476392725e-01
-4.637044309956581123e-01
4.827428517555465981e-01
-5.002701698162095312e-01
-4.403892946610756809e-01
-1.364616441939885849e+00
-9.200865845675207932e-01
-1.347020897127530592e+00
-9.758732529773327391e-01
1.053641796607839520e+00
-9.493988888319430108e-01
2.632382064837390789e+00
4.933179008808892263e-01
1.848361236948738995e-01
-8.583577801812135588e-01
7.003098794089913648e-01
-5.756378262377739308e-01
1.220098146453614391e-01
2.548907230220895492e+00
-1.033067545665524584e-01
1.159351439712962062e+00
-6.974922515377919296e-01
-7.213711999045323287e-02
1.744264017833334623e+00
-5.423077966042095799e-01
1.887960918315631176e+00
8.238194568329629819e-01
-5.136948895329090936e-01
6.591207401853814707e-01
1.007881775086618248e+00
6.383882821217689019e-01
-1.532434813093328296e+00
-7.135982722085747465e-01
-2.475186355515047454e-01
-7.443342910004628610e-02
6.206720975506779814e-01
1.777010009332538332e-01
-1.335344358710101265e+00
3.801978510059632055e-01
6.105857452838231447e-01
